tree
version=v4
num_class=1
num_tree_per_iteration=1
label_index=0
max_feature_idx=8
objective=regression
feature_names=Column_0 Column_1 Column_2 Column_3 Column_4 Column_5 Column_6 Column_7 Column_8
feature_infos=[-0.65843295989692208:4.197716895708969] [-0.65769523415166065:3.4463680714360674] [-2.6381554652437846:2.3682821875093523] [-59.368897435644527:29.645850946532548] [-20.652367167192299:65.973088539160855] [-20.64912417744992:65.96320690414808] [-20.649233363559716:65.96320682174246] [-20.652819457268539:65.976383149198497] [-20.645322852207268:65.95141943163587]
tree_sizes=2901 2963 2987 2983 2976 2983 2988 2984 2964 2975 2993 2999 2998 2995 3000 2975 3002 2992 2990 2980 2985 3003 2998 3003 3002 3008 3003 3005 3018 3030 3017 3020 3002 3015 3021 3007 3015 3019 3004 2995 3000 3011 2986 3013 2993 3022 3001 2995 3006 2992 2985 3009 3000 3010 2976 3011 2993 3005 2985 2974 2989 3028 2996 2991 2994 2990 3014 2991 2989 3016 3004 3000 3008 3005 3019 3002 3008 2999 2991 3008 3004 3007 3015 3003 3023 3018 3009 3018 3019 3009 3011 2994 3011 3011 3005 2994 2988 3005 3000 2998 3012 2996 3002 2995 2989 3026 2994 3006 3013 3002 3014 3025 3009 3006 2994 2986 3005 3007 3000 3026 3007 2986 3015 3020 2996 3004 2994 2989 3025 3000 2990 3014 3000 3020 3028 3024 3016 2998 2995 3033 3005 3016 2995 2999 2988 3028 3001 3035 3003 3011 2996 3009 3010 3027 2990 2985 3032 2991 2989 3019 3014 3002 2995 3011 3005 3025 2994 3012 3041 2997 3009 3007 3011 2995 3030 3018 3015 3025 2995 2987 3024 2984 3009 3014 3023 3015 2991 3026 3010 3003 3027 2990 3010 3016 2997 3000 2982 3002 3012 3012 3007 3003 2996 3009 3025 2998 2982 3023 2996 3005 3011 3005 3012 3001 3002 2993 3013 3019 3023 2998 3005 3000 2999 3029 3018 3031 3009 3022 2990 3014 3008 3011 3014 3021 3011 3008 3013 3002 2990 3007 2995 3030 3003 3019 3014 2994 3021 3004 3009 3006 3012 3021 2970 3023 3009 3001 3012 3014 3010 2986 3000 3019 3030 3012 3002 3011 3020 3014 2992 3034 3015 3007 3004 3000 3030 3003 2998 2986 3008 2999 2994 3020 3007 3005 2997 3018 3005 3029 3014 2993 3011 3014 2990 3011 3000 2987 3015 3014 3028 3003 3024 3014 2983 3005 3021 3018 3005 3001 3014 3033 3000 3006 3010 3019 3008 3010 2995 3027 3030 2991 2999 3028 3015 3003 3024 3031 3016 2982 3000 3004 2999 3008 3014 3028 3008 3005 3004 3022 3007 3005 3003 3019 3025 3005 3008 3007 3012 3013 3002 2998 3009 3013 3028 3023 3036 3021 3012 3017 2991 3021 3018 3013 3017 3021 3005 3013 3020 3013 3005 3020 3018 3015 3012 2996 2996 3000 3002 3017 3023 3024 3010 3007 2996 3012 2993 2980 3008 3008 3023 2999 3018 3011 3019 2989 3016 3003 3008 3020 2999 3012 3013 2996 3000 3011 3014 3018 3002 3017 3018 3026 3004 3013 3014 3030 3011 3006 3019 3028 3025 3007 3016 2994 3025 3010 3008 3010 3012 3017 3035 3025 3013 3019 3017 3020 3022 3021 3021 3014 3019 3008 3025 3002 3015 3004 3027 3020 3011 3010 2999 3007 3006 3009 3008 3008 3006 3003 3001 3007 3006 3028 3020 2995 3033 3029 3028 3028 3020 3019 2991 3013 3020 3023 3017 3022 3029 3008 3013 3025 2974 3029 3013 3018 3007 3003 3000 3010 3012 3002 3018 2998 3003 3006 3003 3024 3016 2999 3019 3006 2998 3022

Tree=0
num_leaves=31
num_cat=0
split_feature=3 0 3 1 3 6 0 8 1 1 5 0 0 4 1 2 4 4 6 0 6 6 0 7 2 7 2 7 7 4
split_gain=0.0920733 0.123618 0.0676748 0.0408843 0.0264564 0.0434597 0.0174132 0.0151575 0.0129825 0.268636 0.0124074 0.010578 0.0175221 0.0100538 0.00964136 0.00958799 0.00908525 0.0139364 0.0104522 0.00882301 0.0168358 0.0122196 0.0116075 0.00986341 0.0089918 0.0124171 0.0086755 0.0103012 0.00836616 0.00829895
threshold=2.0281924438166299 -0.59362040729561771 -0.69644629365156119 -0.63952162811368651 0.86544544220223918 1.5419305807304788 -0.63813175178639658 -1.6009690961763752 2.3169323743788852 2.3762423975743672 1.44226743619902 -0.64708445846867801 -0.64065364099267297 1.5421315123950921 -0.58585715792825521 -0.13493653286527815 1.3049345252317759 1.2550543056423236 -1.4229653483139797 -0.64254505789738037 -0.037802822951561225 -1.2523967884117855 -0.64557132494491209 -2.0003629416964892 -0.41307212695181067 -0.43026162982139965 -0.76074176361253809 -1.3613568920182597 0.9738900673978842 -0.71701195141716934
decision_type=2 2 2 2 2 2 2 2 2 2 2 2 2 2 2 2 2 2 2 2 2 2 2 2 2 2 2 2 2 2
left_child=2 6 3 10 8 7 -2 -6 16 -10 11 -1 -13 15 26 29 17 19 -18 20 -4 24 -22 -23 25 -21 -9 -28 -29 -5
right_child=1 -3 4 13 5 -7 -8 14 9 -11 -12 12 -14 -15 -16 -17 18 -19 -20 21 22 23 -24 -25 -26 -27 27 28 -30 -31
leaf_value=0.0027897992190260069 0.00070964046011749672 -0.0016398185123402994 0.0019908727528332136 0.0017650362998533624 0.000482671248585863 0.00012307391053718538 0.001739506115107235 0.00069470674221474692 0.0040070244064762386 0.0013534897214440851 0.0015024976155541467 0.0017641506906408793 0.0028389711606137081 0.0010907433712134622 0.0014244491168758473 0.0017592447148550923 0.0017745785865001295 0.0021017420807208495 0.0011374187940707816 0.00026903612728301448 0.0013813681275815226 0.00078241401587683722 0.0017513232588796882 0.0013916662959146326 0.0013546244141572376 0.0011153039890488567 0.0018399101279395545 0.0011192872304884281 0.0015852135346790404 0.0014831151754396224
leaf_weight=30 45 20 58 115 22 32 22 30 37 477 20 43 20 37 256 235 26 25 213 20 406 24 94 6774 88 71 23 261 40 514
leaf_count=30 45 20 58 115 22 32 22 30 37 477 20 43 20 37 256 235 26 25 213 20 406 24 94 6774 88 71 23 261 40 514
internal_value=0.00140169 0.000429961 0.00141015 0.00164247 0.00138391 0.00120168 0.00104781 0.0012563 0.00139847 0.0015445 0.00218037 0.00232615 0.00210536 0.00157501 0.0012842 0.00159574 0.00138884 0.0013946 0.00120673 0.00139225 0.00150704 0.00138307 0.00145092 0.00138952 0.0011384 0.000929311 0.00118277 0.00122796 0.0011812 0.00153466
internal_weight=10078 87 9991 1014 8977 664 67 632 8313 514 113 93 63 901 610 864 7799 7560 239 7535 558 6977 500 6798 179 91 354 324 301 629
internal_count=10078 87 9991 1014 8977 664 67 632 8313 514 113 93 63 901 610 864 7799 7560 239 7535 558 6977 500 6798 179 91 354 324 301 629
is_linear=0
shrinkage=1


Tree=1
num_leaves=31
num_cat=0
split_feature=3 0 3 1 3 6 0 8 1 1 8 5 0 0 2 4 2 4 1 2 0 8 0 5 2 4 4 0 6 6
split_gain=0.0866318 0.116312 0.0636752 0.038468 0.0249986 0.0238572 0.0163841 0.0148275 0.012758 0.252877 0.0127113 0.0116741 0.0099528 0.0164866 0.00951599 0.0116816 0.00944635 0.0089887 0.00887061 0.00852665 0.00843433 0.0193084 0.0169648 0.011284 0.0123873 0.0082578 0.00725187 0.00649239 0.0173355 0.0134046
threshold=2.0281924438166299 -0.59362040729561771 -0.69644629365156119 -0.63952162811368651 1.1840262963296082 1.5419305807304788 -0.63813175178639658 1.1341996922718935 2.3169323743788852 2.3762423975743672 -1.319798236745217 1.44226743619902 -0.64708445846867801 -0.64065364099267297 -0.13493653286527815 1.0197142943140221 0.82960222246866844 0.8533066862617692 -0.62670812577626667 0.01358614765291522 -0.58819834550212335 -0.9191959757837731 -0.47660474812439141 -0.84511025588046851 -1.0445622332135474 -0.26911020163470362 -0.85044307790793827 -0.64254505789738037 -0.037802822951561225 -2.000386027369053
decision_type=2 2 2 2 2 2 2 2 2 2 2 2 2 2 2 2 2 2 2 2 2 2 2 2 2 2 2 2 2 2
left_child=2 6 3 11 8 7 -2 10 27 -10 -6 12 -1 -14 15 20 18 -12 -16 -20 26 -22 -23 -24 -25 -26 -5 28 -4 -29
right_child=1 -3 4 14 5 -7 -8 -9 9 -11 17 -13 13 -15 16 -17 -18 -19 19 -21 21 22 23 24 25 -27 -28 29 -30 -31
leaf_value=0.0013464647829532622 -0.00067128920136019581 -0.0029502644506283105 0.00053710196230729874 0.00063915052696278212 -0.00070634381000643542 -0.0011580201714998112 0.0003276804773221639 -0.00082093598865603482 0.0025271731012066626 -4.6394158754720819e-05 2.3246856791705922e-06 9.7782211611047376e-05 0.00035158572396328452 0.0013941615996882319 0.00086113612414919773 -0.0002912797196768224 -0.00012475459681202965 -0.00051998374113977391 0.00090434486424783244 0.00024800729277926536 0.00071162506988912348 -0.00039044563845812302 0.00077580218236627326 -0.00037705194247378542 0.000689202699666986 2.2888037950751626e-05 0.00019840046147623195 -0.00065685133921215301 2.1991606303689404e-05 -2.143539344262579e-05
leaf_weight=30 45 20 66 38 31 25 22 31 37 482 232 20 43 20 32 60 36 34 20 163 32 92 21 44 26 47 290 30 539 7470
leaf_count=30 45 20 66 38 31 25 22 31 37 482 232 20 43 20 32 60 36 34 20 163 32 92 21 44 26 47 290 30 539 7470
internal_value=-9.47714e-13 -0.000942579 8.20782e-06 0.000233553 -1.72461e-05 -0.000264692 -0.000343269 -0.000196603 -7.11761e-06 0.000137078 -0.000131437 0.000755319 0.000896724 0.000682562 0.000168115 0.00010753 0.000325009 -6.44365e-05 0.000400318 0.000319738 0.000148087 2.11739e-05 -7.48888e-05 0.000135482 2.05532e-05 0.000260206 0.000249463 -1.63511e-05 7.81855e-05 -2.39771e-05
internal_weight=10078 87 9991 1014 8977 353 67 328 8624 519 297 113 93 63 901 650 251 266 215 183 590 262 230 138 117 73 328 8105 605 7500
internal_count=10078 87 9991 1014 8977 353 67 328 8624 519 297 113 93 63 901 650 251 266 215 183 590 262 230 138 117 73 328 8105 605 7500
is_linear=0
shrinkage=0.03


Tree=2
num_leaves=31
num_cat=0
split_feature=3 0 3 1 3 6 0 8 1 1 5 0 0 4 6 8 1 4 4 4 6 2 7 1 2 0 7 8 6 7
split_gain=0.0815118 0.109438 0.059912 0.0361946 0.0237364 0.039143 0.0154158 0.0137373 0.0114763 0.237823 0.0109841 0.00936458 0.0155122 0.00918754 0.0092096 0.0109894 0.00891644 0.00889263 0.008599 0.0131186 0.00970181 0.00826391 0.00977413 0.00814969 0.00962413 0.00806764 0.0162927 0.0122767 0.0105647 0.00921129
threshold=2.0281924438166299 -0.59362040729561771 -0.69644629365156119 -0.63952162811368651 0.86544544220223918 1.5419305807304788 -0.63813175178639658 -1.6009690961763752 2.3169323743788852 2.3762423975743672 1.44226743619902 -0.64708445846867801 -0.64065364099267297 1.5421315123950921 -1.2146935153004457 -1.0418056939385207 -0.58585715792825521 1.0000000180025095e-35 1.3049345252317759 1.2550543056423236 -1.4229653483139797 -0.76074176361253809 -1.3613568920182597 -0.61538530316621998 0.14319827496622475 -0.63863612962765182 -2.4191332456680597 -0.78906654730852355 -1.2523967884117855 -2.0003629416964892
decision_type=2 2 2 2 2 2 2 2 2 2 2 2 2 2 2 2 2 2 2 2 2 2 2 2 2 2 2 2 2 2
left_child=2 6 3 10 8 7 -2 -6 18 -10 11 -1 -13 14 17 -16 21 -5 19 25 -20 -9 -23 -24 -25 26 -4 -28 -27 -30
right_child=1 -3 4 13 5 -7 -8 16 9 -11 -12 12 -14 -15 15 -17 -18 -19 20 -21 -22 22 23 24 -26 28 27 -29 29 -31
leaf_value=0.0013060708362609148 -0.00065115053576300847 -0.0028617565256136004 0.00087025112047305563 0.00014789258665405213 -0.00087399488121842625 -0.0012129770050728439 0.00031785005714151667 -0.000684829087163962 0.0024513580535386681 -4.5363629229175314e-05 9.4848748238291581e-05 0.00034103815297617811 0.0013523367668967694 -0.00029985733434079669 0.00062579977323898588 0.00017894733975911474 2.3931819569043001e-05 -0.00062686722521902987 0.0003579212551435026 0.00067969238909427077 -0.00025593972678827513 0.00043170875652045337 -0.00012159386551310921 -0.00091009412438544472 -0.00020615004028183071 -0.00026635742406429735 0.00038367638206261251 1.3268303781428487e-05 -0.00060005581995937975 -1.1260638670838618e-05
leaf_weight=30 45 20 23 30 22 32 22 30 37 477 20 43 20 37 53 757 256 24 26 25 213 23 228 29 44 152 92 646 24 6598
leaf_count=30 45 20 23 30 22 32 22 30 37 477 20 43 20 37 53 757 256 24 26 25 213 23 228 29 44 152 92 646 24 6598
internal_value=-7.53487e-13 -0.000914301 7.96159e-06 0.000226547 -1.67288e-05 -0.000189336 -0.000332971 -0.000137506 -2.94179e-06 0.000134361 0.000732659 0.000869823 0.000662085 0.000163072 0.000182896 0.000208186 -0.000110944 -0.000196445 -1.19909e-05 -6.38991e-06 -0.00018916 -0.000208481 -0.000164375 -0.000209923 -0.000485799 -8.66623e-06 8.39492e-05 5.94438e-05 -1.90708e-05 -1.33946e-05
internal_weight=10078 87 9991 1014 8977 664 67 632 8313 514 113 93 63 901 864 810 610 54 7799 7560 239 354 324 301 73 7535 761 738 6774 6622
internal_count=10078 87 9991 1014 8977 664 67 632 8313 514 113 93 63 901 864 810 610 54 7799 7560 239 354 324 301 73 7535 761 738 6774 6622
is_linear=0
shrinkage=0.03


Tree=3
num_leaves=31
num_cat=0
split_feature=3 0 3 1 3 6 2 0 8 0 0 2 4 7 5 6 2 1 1 2 0 4 1 4 4 6 2 7 0 1
split_gain=0.0766945 0.10297 0.0563712 0.0343427 0.0223336 0.0368296 0.0151413 0.0145047 0.0129254 0.0110475 0.233165 0.00964702 0.00989215 0.0088304 0.00876121 0.0186335 0.00854468 0.00986542 0.0083634 0.0152337 0.0122119 0.0115158 0.0097833 0.00811525 0.0123337 0.00912843 0.00795812 0.00790271 0.00866679 0.0142753
threshold=2.0281924438166299 -0.59362040729561771 -0.69644629365156119 -0.6379992317963693 0.86544544220223918 1.5419305807304788 -1.3865463308229542 -0.63813175178639658 -1.6009690961763752 2.3632946870634952 2.4334032069979794 -0.13493653286527815 1.0197142943140221 0.10035880693770799 -0.84511025588046851 -0.48852194132190313 0.82960222246866844 -0.62670812577626667 -0.58966314872154812 -1.0445622332135474 -0.52552939872615412 -0.26911020163470362 -0.5964822155595314 1.3049345252317759 1.2550543056423236 -1.4229653483139797 0.01358614765291522 -1.3613568920182597 -0.59160289593059656 -0.61046923172488321
decision_type=2 2 2 2 2 2 2 2 2 2 2 2 2 2 2 2 2 2 2 2 2 2 2 2 2 2 2 2 2 2
left_child=2 7 3 6 9 8 -1 -2 -6 23 -11 12 14 27 15 -5 17 -13 22 -20 -21 -22 -16 24 -4 -25 -19 -10 29 -29
right_child=1 -3 4 11 5 -7 -8 -9 13 10 -12 16 -14 -15 18 -17 -18 26 19 20 21 -23 -24 25 -26 -27 -28 28 -30 -31
leaf_value=0.0013434384872569986 -0.00063161600233676521 -0.0027759039059747012 -8.1403107702175076e-06 0.0012014093254110775 -0.00084777508026242935 -0.001176587675618066 0.00050838665015404474 0.000308314586608586 0.00026144302332528136 0.0024586517736558257 -5.2967430820488465e-05 0.00095194846187951043 -0.00029321124287028056 7.7525570761411347e-05 0.00011563952432411895 0.00015971422798055057 -0.00012676785402332565 0.00086983527510892599 -0.00035526422686093758 -0.00023006584022796769 0.00079670595936477185 9.020609687598023e-05 0.00065814591565036343 0.00034718363098083782 0.00065930163951124989 -0.00024826151947244921 0.00023575632276489868 -0.00024633800006433214 -4.3345074778439347e-05 -0.00097725667536400986
leaf_weight=23 45 20 7575 20 22 32 130 22 34 36 438 24 57 168 206 68 35 20 93 51 33 56 35 26 25 213 163 220 161 27
leaf_count=23 45 20 7575 20 22 32 130 22 34 36 438 24 57 168 206 68 35 20 93 51 33 56 35 26 25 213 163 220 161 27
internal_value=-4.27707e-12 -0.000886872 7.72273e-06 0.00021975 -1.62269e-05 -0.000183656 0.000633917 -0.000322982 -0.000133381 -2.85354e-06 0.000137788 0.000146153 8.33642e-05 -0.000107616 0.000121558 0.000396463 0.000306756 0.000380057 7.05206e-05 -5.76399e-05 0.000140068 0.000352167 0.000194427 -1.13577e-05 -5.94478e-06 -0.000183485 0.000305055 -0.000177986 -0.000214605 -0.000326236
internal_weight=10078 87 9991 1014 8977 664 153 67 632 8313 474 861 619 610 562 88 242 207 474 233 140 89 241 7839 7600 239 183 442 408 247
internal_count=10078 87 9991 1014 8977 664 153 67 632 8313 474 861 619 610 562 88 242 207 474 233 140 89 241 7839 7600 239 183 442 408 247
is_linear=0
shrinkage=0.03


Tree=4
num_leaves=31
num_cat=0
split_feature=3 0 3 1 3 6 2 8 0 4 0 0 8 8 2 4 0 5 6 2 1 1 2 0 4 1 7 6 2 3
split_gain=0.0721618 0.0968844 0.0530397 0.0323131 0.0210303 0.0195606 0.0142465 0.0140646 0.0136475 0.0111221 0.0108226 0.21001 0.00994514 0.0118793 0.00907688 0.00930753 0.00895347 0.00824343 0.0175323 0.00803969 0.00928237 0.00786912 0.0143334 0.0114902 0.0108352 0.00920511 0.0076668 0.00762707 0.0074878 0.00595959
threshold=2.0281924438166299 -0.59362040729561771 -0.69644629365156119 -0.6379992317963693 1.1840262963296082 1.5419305807304788 -1.3865463308229542 1.1341996922718935 -0.63813175178639658 0.8533066862617692 2.3632946870634952 2.4334032069979794 -0.67715093131554505 -0.19683454442584186 -0.13493653286527815 1.0197142943140221 -0.62804419496129105 -0.84511025588046851 -0.48852194132190313 0.82960222246866844 -0.62670812577626667 -0.58966314872154812 -1.0445622332135474 -0.52552939872615412 -0.26911020163470362 -0.5964822155595314 -0.037399911399791583 -0.08437479449327169 0.01358614765291522 0.36119558180380612
decision_type=2 2 2 2 2 2 2 2 2 2 2 2 2 2 2 2 2 2 2 2 2 2 2 2 2 2 2 2 2 2
left_child=2 8 3 6 10 7 -1 9 -2 12 29 -12 16 -14 15 17 -6 18 -5 20 -16 25 27 -24 -25 -19 -20 -23 -22 -4
right_child=1 -3 4 14 5 -7 -8 -9 -10 -11 11 -13 13 -15 19 -17 -18 21 26 -21 28 22 23 24 -26 -27 -28 -29 -30 -31
leaf_value=0.0013031353270027623 -0.00061266752487669387 -0.0026926267854287286 -1.6906007936274993e-06 0.0011653670277446508 -0.0008616609705021128 -0.0010515925861895085 0.00049313504868545206 -0.00078910267730891292 0.00029906513137658208 -0.00056993485720990323 0.0023032501122184296 -4.9612030054782216e-05 0.00067179626887082112 -3.7395107058053385e-05 0.00092338997492333872 -0.0002844148994833966 -1.51199888469736e-05 0.00011217032662068394 0.00053565956361126157 -0.00012296482415071554 0.00084374023193959139 -0.00062519683770369738 -0.00022316385402946788 0.00077280477874658326 8.7499905577195544e-05 0.00063840152559402796 -0.00011159294642857274 -8.1552680458116809e-05 0.00022868361520165636 -6.5610389235833469e-05
leaf_weight=23 45 20 6500 20 23 25 130 31 22 42 37 442 24 186 24 57 22 206 28 35 20 45 51 33 56 35 40 48 163 1645
leaf_count=23 45 20 6500 20 23 25 130 31 22 42 37 442 24 186 24 57 22 206 28 35 20 45 51 33 56 35 40 48 163 1645
internal_value=1.48132e-13 -0.000860266 7.49106e-06 0.000213158 -1.57401e-05 -0.000242698 0.0006149 -0.000181045 -0.000313293 -0.000117577 -6.45017e-06 0.000132133 -4.30715e-05 4.36553e-05 0.000141768 8.08633e-05 -0.000447796 0.000117911 0.000384569 0.000297553 0.000368655 6.8405e-05 -5.59107e-05 0.000135866 0.000341602 0.000188594 0.000154923 -0.000344606 0.000295903 -1.46001e-05
internal_weight=10078 87 9991 1014 8977 353 153 328 67 297 8624 479 255 210 861 619 45 562 88 242 207 474 233 140 89 241 68 93 183 8145
internal_count=10078 87 9991 1014 8977 353 153 328 67 297 8624 479 255 210 861 619 45 562 88 242 207 474 233 140 89 241 68 93 183 8145
is_linear=0
shrinkage=0.03


Tree=5
num_leaves=31
num_cat=0
split_feature=3 0 3 1 3 6 0 8 5 1 1 0 0 4 6 8 5 7 4 4 6 0 7 8 6 2 7 6 1 1
split_gain=0.0678971 0.0911585 0.049905 0.0305136 0.0199382 0.033201 0.0128409 0.0117163 0.0101122 0.00986434 0.216591 0.00836824 0.0148355 0.00826991 0.00838799 0.0104029 0.0084832 0.00823177 0.00761715 0.0116173 0.00858851 0.00755938 0.0153285 0.0115533 0.00991844 0.00867763 0.00866186 0.0107828 0.00765037 0.00753546
threshold=2.0281924438166299 -0.59362040729561771 -0.69644629365156119 -0.63952162811368651 0.86544544220223918 1.5419305807304788 -0.63813175178639658 -1.6009690961763752 1.44226743619902 2.3169323743788852 2.3762423975743672 -0.64708445846867801 -0.64065364099267297 1.5421315123950921 -1.2146935153004457 -1.0418056939385207 0.16044754553472221 0.10035880693770799 1.3049345252317759 1.2550543056423236 -1.4229653483139797 -0.63863612962765182 -2.4191332456680597 -0.78906654730852355 -1.2523967884117855 1.0948171937067606 -2.0003629416964892 1.8211141367489185 -0.63882386313491601 -0.57161640904335054
decision_type=2 2 2 2 2 2 2 2 2 2 2 2 2 2 2 2 2 2 2 2 2 2 2 2 2 2 2 2 2 2
left_child=2 6 3 8 9 7 -2 -6 11 18 -11 -1 -13 14 16 29 -5 -9 19 21 -20 22 -4 -24 -23 -25 -26 28 -28 -16
right_child=1 -3 4 13 5 -7 -8 17 -10 10 -12 12 -14 -15 15 -17 -18 -19 20 -21 -22 24 23 25 26 -27 27 -29 -30 -31
leaf_value=0.0012154573891311885 -0.00059428754510978856 -0.0026118479386204852 0.00084443850543997859 0.0001812795499871653 -0.00080588842890310015 -0.0011162128225987544 0.00029009315841407938 -0.00016914200511177716 5.9490066720172757e-05 0.0023358126016132332 -4.6850876790372897e-05 0.00029272734696522007 0.0012817209810018538 -0.00029072082178302212 0.00031926250953057947 0.00016297797937614504 -0.00057074892649830466 7.7556726408200153e-05 0.0003369663313228207 0.0006398801164934412 -0.00024060090815727962 -0.00025756714183970821 0.00037252355232814571 5.969223677510834e-05 -0.0005813596923235309 -0.00024681086901442279 -0.00030500320848659613 0.00047460441199335745 -9.8257437670935208e-06 0.0010572381920646876
leaf_weight=30 45 20 23 27 22 32 22 442 20 37 477 43 20 37 33 757 27 168 26 25 213 152 92 548 24 98 80 41 6477 20
leaf_count=30 45 20 23 27 22 32 22 442 20 37 477 43 20 37 33 757 27 168 26 25 213 152 92 548 24 98 80 41 6477 20
internal_value=2.68469e-15 -0.000834458 7.26632e-06 0.000206763 -1.52679e-05 -0.000173463 -0.000303894 -0.000125729 0.000671462 -2.63205e-06 0.000124664 0.000803069 0.000606694 0.000148482 0.000167291 0.000191426 -0.000194735 -0.000101199 -1.10216e-05 -5.75007e-06 -0.000177769 -7.89217e-06 8.17584e-05 5.79892e-05 -1.79636e-05 1.31949e-05 -1.24638e-05 -1.03945e-05 -1.34271e-05 0.000597744
internal_weight=10078 87 9991 1014 8977 664 67 632 113 8313 514 93 63 901 864 810 54 610 7799 7560 239 7535 761 738 6774 646 6622 6598 6557 53
internal_count=10078 87 9991 1014 8977 664 67 632 113 8313 514 93 63 901 864 810 54 610 7799 7560 239 7535 761 738 6774 646 6622 6598 6557 53
is_linear=0
shrinkage=0.03


Tree=6
num_leaves=31
num_cat=0
split_feature=3 0 3 1 3 6 2 0 8 0 0 2 4 7 5 3 1 2 0 4 1 2 1 7 0 1 4 4 6 0
split_gain=0.0638844 0.0857711 0.0469556 0.0289238 0.0187599 0.0312388 0.0130859 0.012082 0.0110238 0.00974154 0.203023 0.00858833 0.0084925 0.00774597 0.00773296 0.0115795 0.00823892 0.0141261 0.0128984 0.00859726 0.00825491 0.00752769 0.0087496 0.00747788 0.007971 0.0134321 0.0071793 0.010926 0.00808093 0.00708531
threshold=2.0281924438166299 -0.59362040729561771 -0.69644629365156119 -0.6379992317963693 0.86544544220223918 1.5419305807304788 -1.3865463308229542 -0.63813175178639658 -1.6009690961763752 2.3632946870634952 2.4334032069979794 -0.13493653286527815 1.0197142943140221 0.10778527767407603 -0.94648692478767626 -1.310470985880221 -0.58966314872154812 -1.0445622332135474 -0.47660474812439141 -0.26911020163470362 -0.5964822155595314 0.82960222246866844 -0.62670812577626667 -1.3613568920182597 -0.59160289593059656 -0.61046923172488321 1.3049345252317759 1.2550543056423236 -1.4229653483139797 -0.63863612962765182
decision_type=2 2 2 2 2 2 2 2 2 2 2 2 2 2 2 2 2 2 2 2 2 2 2 2 2 2 2 2 2 2
left_child=2 7 3 6 9 8 -1 -2 -6 26 -11 12 14 23 15 -5 20 -18 -19 -20 -16 22 -13 -10 25 -25 27 29 -28 -4
right_child=1 -3 4 11 5 -7 -8 -9 13 10 -12 21 -14 -15 16 -17 17 18 19 -21 -22 -23 -24 24 -26 -27 28 -29 -30 -31
leaf_value=0.0012402558968523921 -0.00057645891762028137 -0.0025334925767965611 7.9305650350153099e-05 0.00093954728479729967 -0.00078171173660931254 -0.0010827263962710275 0.00046394967774036699 0.00028139039503664452 0.00026369466971519771 0.0022951740285013025 -4.8484515471450503e-05 0.00089193322171922775 -0.00027514379306108153 7.5952919778283546e-05 0.00011868650771095944 0.00011699399621182576 -0.00034240505613323825 -0.00020706330711254851 0.00076569115112145095 0.00013673246530640238 0.00061455580246235636 -0.00012235474505827628 0.00028271998755431536 -0.00022909191151517335 -3.5803980973907055e-05 -0.00093809598914554554 0.00032685736588274056 0.00062068371414206918 -0.00023338287666646603 -1.721019617983496e-05
leaf_weight=23 45 20 761 24 22 32 130 22 34 36 438 24 57 167 221 43 95 60 31 53 35 35 183 220 162 27 26 25 213 6814
leaf_count=23 45 20 761 24 22 32 130 22 34 36 438 24 57 167 221 43 95 60 31 53 35 35 183 220 162 27 26 25 213 6814
internal_value=-1.36243e-12 -0.000809424 7.04833e-06 0.00020056 -1.48098e-05 -0.000168259 0.000580649 -0.000294777 -0.000121957 -2.55309e-06 0.000129515 0.000133018 7.37752e-05 -9.81628e-05 0.000109164 0.00041164 6.82225e-05 -5.84478e-05 0.000128885 0.000368848 0.000186481 0.000284553 0.000353353 -0.0001638 -0.000199338 -0.000306594 -1.05388e-05 -5.44758e-06 -0.000172436 -7.51402e-06
internal_weight=10078 87 9991 1014 8977 664 153 67 632 8313 474 861 619 610 562 67 495 239 144 84 256 242 207 443 409 247 7839 7600 239 7575
internal_count=10078 87 9991 1014 8977 664 153 67 632 8313 474 861 619 610 562 67 495 239 144 84 256 242 207 443 409 247 7839 7600 239 7575
is_linear=0
shrinkage=0.03


Tree=7
num_leaves=31
num_cat=0
split_feature=3 3 0 3 7 2 6 2 2 2 1 0 6 5 8 4 7 5 4 6 2 8 5 5 4 1 6 4 4 4
split_gain=0.0614509 0.0452923 0.0273184 0.0262381 0.0210374 0.0229214 0.0178296 0.0119613 0.0100026 0.010858 0.0111657 0.00950944 0.195206 0.279943 0.00904476 0.00983212 0.00845782 0.00809142 0.00911634 0.0157026 0.00698194 0.00649919 0.00611371 0.00588132 0.00751768 0.013803 0.00971838 0.00866873 0.00677175 0.00663207
threshold=2.512859689433999 -0.69644629365156119 -0.63813175178639658 1.1840262963296082 0.40112925315597764 -0.7607412707914859 1.5419305807304788 -1.5256138826287902 -0.13493653286527815 0.82960222246866844 -0.62670812577626667 2.3632946870634952 -0.51912102639675706 0.20195169819535561 1.0195750438378191 0.6786014002273586 -0.78725678964799173 0.97337342379342162 -0.81626203544444265 0.37407509212708773 0.01358614765291522 1.0000000180025095e-35 1.3449727029565188 3.0035765456941061 -1.1557548303589189 -0.59080494595953603 -0.71687344556805599 -1.6016987558821707 -1.1282167813410442 -1.4232099607917068
decision_type=2 2 2 2 2 2 2 2 2 2 2 2 2 2 2 2 2 2 2 2 2 2 2 2 2 2 2 2 2 2
left_child=1 2 7 11 5 -5 14 -1 17 10 -10 23 13 -13 15 16 -7 18 19 21 -12 -4 -19 24 25 26 -3 -27 -26 -28
right_child=-2 3 8 4 -6 6 -8 -9 9 -11 20 12 -14 -15 -16 -17 -18 22 -20 -21 -22 -23 -24 -25 28 27 29 -29 -30 -31
leaf_value=0.0011578305762830294 -0.0012372488656546918 0.00076270548950333242 0.00097473845375897045 -0.0011535419372376053 0.00016932182024382718 0.00037313216415521522 -0.0010839305826179358 0.00045120552007030587 0.00083936078908951263 -0.00017153502872028741 0.00080324681801721449 -7.0469801852456062e-05 -7.3337812884334327e-05 0.0046505263688159174 -0.00068660029091006437 -0.0005532892197631802 -0.00014875644359516667 -0.00059141431311478037 5.4661014314807549e-05 -0.00025617885321315212 0.00020932938255786756 0.00028108887642156328 6.869482676215146e-05 -0.00052730567406979395 -0.00051110190991312263 -0.00050992511368046212 7.0725353955615995e-05 3.9184102867654041e-05 -1.6564353234556188e-05 0.00048247251621214666
leaf_weight=27 36 32 31 30 84 34 23 107 38 39 20 26 433 20 32 44 157 28 496 22 163 20 23 20 25 36 119 92 7771 50
leaf_count=27 36 32 31 30 84 34 23 107 38 39 20 26 433 20 32 44 157 28 496 22 163 20 23 20 25 36 119 92 7771 50
internal_value=1.43295e-12 4.43547e-06 0.000194543 -1.69169e-05 -0.000253212 -0.000364128 -0.000282464 0.000593585 0.00013378 0.000289967 0.000371409 -5.84741e-06 0.000124056 0.00198214 -0.000213424 -0.000148991 -5.58548e-05 6.82822e-05 0.000100729 0.000413736 0.000274238 0.000702719 -0.000293718 -1.34869e-05 -1.22222e-05 0.00012825 0.000283316 -0.000115253 -1.81502e-05 0.000192544
internal_weight=10078 10042 1014 9028 404 320 290 134 880 260 221 8624 479 46 267 235 191 620 569 73 183 51 51 8145 8125 329 201 128 7796 169
internal_count=10078 10042 1014 9028 404 320 290 134 880 260 221 8624 479 46 267 235 191 620 569 73 183 51 51 8145 8125 329 201 128 7796 169
is_linear=0
shrinkage=0.03


Tree=8
num_leaves=31
num_cat=0
split_feature=3 3 1 3 7 2 6 5 0 6 7 8 4 4 6 8 1 4 0 7 0 0 6 2 0 2 4 8 7 4
split_gain=0.0578192 0.0426155 0.0257353 0.0246874 0.0197941 0.0215667 0.0167759 0.00922927 0.00894743 0.183669 0.275009 0.00851021 0.00927778 0.00764627 0.00765477 0.0100033 0.00947958 0.00810937 0.00755131 0.00934901 0.00752492 0.014068 0.00739703 0.00614057 0.0183513 0.0117551 0.00642238 0.00762538 0.0067208 0.00880449
threshold=2.512859689433999 -0.69644629365156119 -0.63952162811368651 1.1840262963296082 0.40112925315597764 -0.7607412707914859 1.5419305807304788 1.44226743619902 2.3632946870634952 -0.51912102639675706 -0.029429747572220503 1.0195750438378191 0.8533066862617692 1.5421315123950921 -1.2146935153004457 -0.98968205160451472 -0.5595641048645893 1.0000000180025095e-35 -0.64304943573863571 -0.90948533711609347 -0.64708445846867801 -0.64065364099267297 -0.99002946919309787 -1.0445622332135474 -0.58756787320055426 -1.1945739778972724 -0.20408148266794282 0.59867260684949786 0.7550850534615049 -0.85044307790793827
decision_type=2 2 2 2 2 2 2 2 2 2 2 2 2 2 2 2 2 2 2 2 2 2 2 2 2 2 2 2 2 2
left_child=1 2 7 8 5 -5 11 20 -3 10 -10 12 18 14 17 16 -16 -4 -7 -20 -1 -22 -17 24 -24 -26 27 28 29 -25
right_child=-2 3 13 4 -6 6 -8 -9 9 -11 -12 -13 -14 -15 15 22 -18 -19 19 -21 21 -23 23 26 25 -27 -28 -29 -30 -31
leaf_value=0.0011322608962655066 -0.0012001313754202178 -1.3082329337348995e-05 0.00013625175847118952 -0.0011189356191316621 0.00016424216409047533 -0.00055188793895649723 -0.0010514126466992109 3.0828638467937703e-05 0.0045674394846209904 -7.113769026239258e-05 -0.00011176265489596587 -0.00066600227302842535 -0.00058770637568765483 -0.00028713468501558276 0.00028014477897578705 0.00070188843129601866 0.0010834757649572566 -0.00060360111663612767 0.00048748273507226252 -9.4669841651011673e-05 0.00024924865209085992 0.0012123212814331053 0.00028827099566115062 0.0007976336311548948 -0.00012323882306061152 -0.00091564766574225821 0.0001209273496527119 0.00076269081393547816 -0.00026109561568591743 0.00014181014521705821
leaf_weight=30 36 8145 30 30 84 25 23 20 20 433 26 32 36 37 39 21 20 24 30 144 43 20 84 27 63 23 423 32 20 58
leaf_count=30 36 8145 30 30 84 25 23 20 20 433 26 32 36 37 39 21 20 24 30 144 43 20 84 27 63 23 423 32 20 58
internal_value=4.47452e-13 4.3024e-06 0.000188707 -1.64094e-05 -0.000245616 -0.000353204 -0.00027399 0.000615474 -5.67199e-06 0.000120335 0.00192267 -0.000207021 -0.000144522 0.000135184 0.000153269 0.000176325 0.00055246 -0.000192572 -6.43476e-05 5.70129e-06 0.000741204 0.000554986 0.000146775 0.000130806 -2.71128e-05 -0.000335162 0.000178746 0.000357265 0.000233707 0.000350131
internal_weight=10078 10042 1014 9028 404 320 290 113 8624 479 46 267 235 901 864 810 59 54 199 174 93 63 751 730 170 86 560 137 105 85
internal_count=10078 10042 1014 9028 404 320 290 113 8624 479 46 267 235 901 864 810 59 54 199 174 93 63 751 730 170 86 560 137 105 85
is_linear=0
shrinkage=0.03


Tree=9
num_leaves=31
num_cat=0
split_feature=3 3 1 3 7 2 6 2 0 0 8 4 2 4 7 5 6 7 1 2 0 4 1 6 5 3 3 8 5 1
split_gain=0.054402 0.0400969 0.0244445 0.0232284 0.0186243 0.0202921 0.0157845 0.0113574 0.00841863 0.180337 0.00800726 0.00877565 0.00759539 0.00764313 0.00747481 0.00742324 0.0161563 0.00719087 0.00676368 0.0122689 0.010261 0.00940268 0.00823251 0.00707119 0.00666584 0.0063304 0.00917949 0.00706457 0.00720236 0.00586431
threshold=2.512859689433999 -0.69644629365156119 -0.6379992317963693 1.1840262963296082 0.40112925315597764 -0.7607412707914859 1.5419305807304788 -1.3865463308229542 2.3632946870634952 2.4334032069979794 1.0195750438378191 0.6786014002273586 -0.13493653286527815 1.0197142943140221 -0.78725678964799173 -0.84511025588046851 -0.48852194132190313 -0.037399911399791583 -0.58966314872154812 -1.0445622332135474 -0.52552939872615412 -0.26911020163470362 -0.5964822155595314 -0.08437479449327169 -0.48843815119783973 -1.4223575710999812 -1.1050301451355951 -0.13280402112077597 0.75461102336522445 -0.56882534912826899
decision_type=2 2 2 2 2 2 2 2 2 2 2 2 2 2 2 2 2 2 2 2 2 2 2 2 2 2 2 2 2 2
left_child=1 2 7 8 5 -5 10 -1 -3 -10 11 14 13 15 -7 16 -4 -18 22 23 -21 -22 -17 -20 -14 -26 -27 -28 -29 -6
right_child=-2 3 12 4 29 6 -8 -9 9 -11 -12 -13 24 -15 -16 18 17 -19 19 20 21 -23 -24 -25 25 26 27 28 -30 -31
leaf_value=0.0011469677969327438 -0.0011641274155893672 -1.2689857474165206e-05 0.0011013890637550504 -0.0010853675953112541 -3.8528168066878314e-06 0.00035109231691047383 -0.0010198702938530755 0.00042374670611192974 0.002128622968353935 -5.1692120717427922e-05 -0.00064602220623783064 -0.00052214555663919211 0.0006070420700624319 -0.00026577025722393667 -0.00013953159686488608 9.0988103404315645e-05 0.00050013745012360495 -0.00012670371813874225 -0.00060068851118558078 -0.00022527362819185808 0.00071011812849478277 7.1720565392752173e-05 0.00058864310590018122 -7.7230220422279676e-05 -0.00031503380625508726 0.00063590449081467727 0.00052004074314027093 -0.00013312725749241094 0.00043443843861395081 0.00054439073195680979
leaf_weight=23 36 8145 20 30 59 34 23 130 37 442 32 44 42 57 157 206 28 40 45 51 33 56 35 48 20 42 32 79 27 25
leaf_count=23 36 8145 20 30 59 34 23 130 37 442 32 44 42 57 157 206 28 40 45 51 33 56 35 48 20 42 32 79 27 25
internal_value=2.12992e-12 4.17333e-06 0.000183046 -1.59171e-05 -0.000238248 -0.000342608 -0.000265771 0.000532466 -5.50183e-06 0.000116725 -0.000200811 -0.000140186 0.000120954 6.52405e-05 -5.21954e-05 9.88128e-05 0.000351858 0.000131407 5.1834e-05 -6.34195e-05 0.000114009 0.00030843 0.000163262 -0.000330516 0.000263459 0.000191307 0.000247567 0.000129377 1.14414e-05 0.000159315
internal_weight=10078 10042 1014 9028 404 320 290 153 8624 479 267 235 861 619 191 562 88 68 474 233 140 89 241 93 242 200 180 138 106 84
internal_count=10078 10042 1014 9028 404 320 290 153 8624 479 267 235 861 619 191 562 88 68 474 233 140 89 241 93 242 200 180 138 106 84
is_linear=0
shrinkage=0.03


Tree=10
num_leaves=31
num_cat=0
split_feature=3 0 3 5 3 7 7 2 0 0 2 0 6 4 8 1 0 6 5 7 2 6 4 6 2 5 1 2 3 4
split_gain=0.0515023 0.0815977 0.0377402 0.0235162 0.0196091 0.0264791 0.0236793 0.017646 0.017035 0.0114523 0.00945765 0.00915418 0.216388 0.0095163 0.0124851 0.0128734 0.0262506 0.0148439 0.0162673 0.00810012 0.0105193 0.00768105 0.00829739 0.00766537 0.00762018 0.00728271 0.00786862 0.0132248 0.011284 0.0067533
threshold=2.0281924438166299 -0.59362040729561771 -1.4858537234370035 -0.98994504733150523 0.36119558180380612 -1.601327027763549 -1.3613568920182597 -2.6189875610684736 -0.62854857280254628 -0.63813175178639658 -0.093488274911109864 2.3632946870634952 -0.51912102639675706 -0.67757427486451449 -1.2520018185741908 -0.5660660058031316 -0.54973953510640772 0.63579058477827055 0.59869554034894945 0.30564479914158482 -0.13493639514473574 1.1342372832349803 -2.1808436304612493 0.37407509212708773 1.3464989805871503 -1.3614187331315795 -0.63381264192374698 0.69946928260118224 1.4672195307143416 -0.71701195141716934
decision_type=2 2 2 2 2 2 2 2 2 2 2 2 2 2 2 2 2 2 2 2 2 2 2 2 2 2 2 2 2 2
left_child=2 9 3 -1 11 -6 -7 -5 24 -2 23 13 -13 14 -4 21 -17 18 -18 20 29 22 -16 -10 25 -8 27 28 -27 -9
right_child=1 -3 4 7 5 6 8 19 10 -11 -12 12 -14 -15 15 16 17 -19 -20 -21 -22 -23 -24 -25 -26 26 -28 -29 -30 -31
leaf_value=0.0010071934378434629 -0.00049903458046416445 -0.0024083624524064359 0.0006304267664963845 0.0010871376895811408 -0.00085970211397999748 0.00079585681469844917 0.00017426741456535544 0.00066181276214774694 -9.7802609989062608e-05 0.00033616060100030151 1.1362171261332168e-06 0.0023463391449705167 -5.3986779380175267e-05 -5.6724557944269584e-07 -0.00034107540343557632 -0.0011198351420378977 2.2139239346955059e-05 0.00066404801557207692 -0.00082845914643257855 -0.00016218644159380347 0.0008149734154665986 0.00053962688267980086 0.00016915881487193472 -0.0003801276098210048 -0.00082095400161415449 -0.00012985227030451194 -0.00071457940022810361 0.00036305113281640737 -0.00075628362609910091 6.2934858834597505e-05
leaf_weight=42 45 20 40 20 39 28 29 20 542 22 1128 37 391 6521 31 21 129 26 24 54 26 46 384 103 25 65 39 27 43 111
leaf_count=42 45 20 40 20 39 28 29 20 542 22 1128 37 391 6521 31 21 129 26 24 54 26 46 384 103 25 65 39 27 43 111
internal_value=-1.3154e-12 -0.000726762 6.32852e-06 0.000354206 -3.44411e-06 -8.54071e-05 -7.05241e-05 0.000235481 -8.26474e-05 -0.000224791 -5.1258e-05 1.87127e-05 0.000153518 1.07236e-05 0.000115756 8.46114e-05 -0.000116392 1.33067e-06 -0.000111288 0.000154755 0.000263766 0.000171814 0.000131045 -0.000142887 -0.000326741 -0.000265877 -0.000339235 -0.000230802 -0.000379265 0.000154367
internal_weight=10078 87 9991 273 9718 2068 2029 231 2001 67 1773 7650 428 7222 701 661 200 179 153 211 157 461 415 645 228 203 174 135 108 131
internal_count=10078 87 9991 273 9718 2068 2029 231 2001 67 1773 7650 428 7222 701 661 200 179 153 211 157 461 415 645 228 203 174 135 108 131
is_linear=0
shrinkage=0.03


Tree=11
num_leaves=31
num_cat=0
split_feature=3 3 0 3 7 2 6 2 2 2 1 5 4 6 8 4 0 0 0 7 2 8 8 8 1 3 2 1 2 8
split_gain=0.0493239 0.0364017 0.02222 0.0203197 0.0173941 0.0189389 0.0146766 0.010041 0.00873485 0.00990329 0.00985875 0.00767134 0.00820671 0.0148716 0.00765052 0.00846 0.00743151 0.168618 0.0072313 0.00911711 0.00653692 0.00645952 0.0057244 0.0135924 0.00766494 0.00626767 0.0111578 0.0100946 0.0121396 0.00920407
threshold=2.512859689433999 -0.69644629365156119 -0.63813175178639658 1.1840262963296082 0.40112925315597764 -0.7607412707914859 1.5419305807304788 -1.5256138826287902 -0.13493653286527815 0.82960222246866844 -0.62670812577626667 0.97337342379342162 -0.81626203544444265 0.26829195214583862 1.0195750438378191 0.6786014002273586 2.3632946870634952 2.4334032069979794 -0.64304943573863571 -0.78725678964799173 0.01358614765291522 1.0000000180025095e-35 1.9680144247550422 1.820952054140776 -0.61893756123996024 0.36119558180380612 -0.13493696276847666 -0.61538530316621998 0.07424790039271513 1.3448154518187856
decision_type=2 2 2 2 2 2 2 2 2 2 2 2 2 2 2 2 2 2 2 2 2 2 2 2 2 2 2 2 2 2
left_child=1 2 7 16 5 -5 14 -1 11 10 -10 12 13 21 15 18 22 -18 -7 -20 -12 -4 23 25 -24 29 -27 28 -28 -3
right_child=-2 3 8 4 -6 6 -8 -9 9 -11 20 -13 -14 -15 -16 -17 17 -19 19 -21 -22 -23 24 -25 -26 26 27 -29 -30 -31
leaf_value=0.0010512621431714958 -0.0011084636820911933 -3.5950145275228435e-06 0.00095580009301193065 -0.0010415337759186512 0.00016109527911664501 -0.00051710576185723769 -0.00097689166017200639 0.00040383874315759775 0.00078305077500102156 -0.00017518738404340601 0.00076390205888310445 -0.00029408049920354694 4.6281656739724451e-05 -0.00024436389679423245 -0.00062227906216321565 -0.00050286643876461311 0.0020548396264014109 -5.3442533065772216e-05 0.00049415141027214218 -7.6349131614228505e-05 0.00018922421255611753 0.00025976558629190545 2.8573757920994312e-05 -0.00058850240469296661 0.00061753116408362987 -0.00017746893629678163 0.00037943345995490043 2.9924230052494595e-05 -0.00032309250432586577 0.00027198768457998771
leaf_weight=27 36 6284 30 30 84 25 23 107 38 39 20 51 496 23 32 44 37 442 31 135 163 20 59 37 30 532 26 917 149 111
leaf_count=27 36 6284 30 30 84 25 23 107 38 39 20 51 496 23 32 44 37 442 31 135 163 20 59 37 30 532 26 917 149 111
internal_value=-1.54001e-12 3.97378e-06 0.000174405 -1.51686e-05 -0.000223113 -0.000323968 -0.000249737 0.00053429 0.000119604 0.000265558 0.000343337 5.83976e-05 8.99906e-05 0.000386972 -0.000187098 -0.000127839 -5.42721e-06 0.00010941 -4.14455e-05 3.01901e-05 0.000252031 0.000677386 -1.21807e-05 -1.48242e-05 0.000227099 -1.21772e-05 -6.48082e-05 -9.92216e-06 -0.000218717 1.18836e-06
internal_weight=10078 10042 1014 9028 404 320 290 134 880 260 221 620 569 73 267 235 8624 479 191 166 183 50 8145 8056 89 8019 1624 1092 175 6395
internal_count=10078 10042 1014 9028 404 320 290 134 880 260 221 620 569 73 267 235 8624 479 191 166 183 50 8145 8056 89 8019 1624 1092 175 6395
is_linear=0
shrinkage=0.03


Tree=12
num_leaves=31
num_cat=0
split_feature=3 3 2 0 3 6 2 5 0 2 2 2 1 7 7 1 5 4 6 4 4 7 6 5 5 7 7 1 4 6
split_gain=0.0464879 0.033826 0.031275 0.0209068 0.0159008 0.0228952 0.0147435 0.018556 0.0153098 0.00944758 0.00821862 0.00931801 0.0092761 0.0073793 0.00849517 0.00789958 0.00721797 0.00772169 0.0139927 0.00715602 0.010017 0.00785406 0.00774139 0.00727513 0.220388 0.00961293 0.00930932 0.00906997 0.0105784 0.00832084
threshold=2.2633028584769961 -0.69644629365156119 0.63135506788531826 -0.63813175178639658 0.86544544220223918 1.5419305807304788 -0.7774329181722377 -0.90963518275844912 -0.61039097051735591 -1.5256138826287902 -0.13493653286527815 0.82960222246866844 -0.62670812577626667 0.40112925315597764 -1.0419540261348008 -0.62550289535839054 0.97337342379342162 -0.81626203544444265 0.26829195214583862 1.3049345252317759 1.2550543056423236 -0.71660195702841523 -1.4229653483139797 0.30525830006486548 0.29181914387176749 -1.404959354328126 -1.1278245732185961 -0.64887802214719847 -1.2149068301213803 -1.8445021636045424
decision_type=2 2 2 2 2 2 2 2 2 2 2 2 2 2 2 2 2 2 2 2 2 2 2 2 2 2 2 2 2 2
left_child=1 3 -2 9 19 6 7 -6 -9 -1 16 12 -12 14 15 -8 17 18 -5 20 23 -21 -23 24 26 -25 27 -3 -29 -28
right_child=2 4 -4 10 5 -7 13 8 -10 -11 11 -13 -14 -15 -16 -17 -18 -19 -20 21 -22 22 -24 25 -26 -27 29 28 -30 -31
leaf_value=0.0010197242667588093 -0.00017386916221585126 0.0007954806215129792 -0.001567970719063721 0.00065706468974822193 -0.001277710443828255 -0.00092281176899136467 -0.00017253041623916944 -0.00073163254998772481 0.00041521161800483239 0.00039172358978724662 0.00075955923205535652 -0.00016993177294632634 0.00024446962375029711 0.00011918251610617956 -0.00017417783114261081 0.00056326415908125485 -0.00028525808788425124 4.4893205784084724e-05 -0.00023703297525492456 -0.00053067157299496064 0.00060230596396140747 0.00047625979722943159 -0.0001462386950842802 -0.00045450515156167403 0.0022642410851012053 -4.0529589837434555e-05 0.0003375238056815717 0.00073843424667796608 5.9414888910216157e-05 -9.0808359865740819e-06
leaf_weight=27 30 20 28 50 21 33 24 22 20 107 38 39 183 145 399 29 51 496 23 43 25 20 178 52 39 1731 63 23 202 5917
leaf_count=27 30 20 28 50 21 33 24 22 20 107 38 39 183 145 399 29 51 496 23 43 25 20 178 52 39 1731 63 23 202 5917
internal_value=-3.45636e-12 4.90212e-06 -0.000846884 0.000169173 -1.35934e-05 -0.000151656 -0.000113099 -0.000549581 -0.000185516 0.000518261 0.000116016 0.000257592 0.000333037 -6.70378e-05 -0.000126777 0.000230074 5.66457e-05 8.72909e-05 0.000375363 -2.08397e-06 2.72549e-06 -0.000163171 -8.33601e-05 8.62746e-07 1.60813e-05 -5.26029e-05 1.99648e-06 0.000183247 0.000128826 -5.42932e-06
internal_weight=10078 10020 58 1014 9006 693 660 63 42 134 880 260 221 597 452 53 620 569 73 8313 8072 241 198 8047 6264 1783 6225 245 225 5980
internal_count=10078 10020 58 1014 9006 693 660 63 42 134 880 260 221 597 452 53 620 569 73 8313 8072 241 198 8047 6264 1783 6225 245 225 5980
is_linear=0
shrinkage=0.03


Tree=13
num_leaves=31
num_cat=0
split_feature=3 3 0 3 7 2 6 2 2 2 1 8 4 1 1 4 5 3 1 2 0 1 4 0 7 6 6 3 5 2
split_gain=0.0441808 0.0322174 0.0196712 0.0180216 0.0158423 0.0174068 0.0130513 0.00888923 0.0077329 0.00876732 0.00872788 0.00720417 0.0079927 0.0069984 0.193951 0.00699757 0.00697371 0.0108708 0.00692803 0.012084 0.0128113 0.00753652 0.00703995 0.00647342 0.00830476 0.00646061 0.00627552 0.00590291 0.00587878 0.0145026
threshold=2.512859689433999 -0.69644629365156119 -0.63813175178639658 1.1840262963296082 0.40112925315597764 -0.7607412707914859 1.5419305807304788 -1.5256138826287902 -0.13493653286527815 0.82960222246866844 -0.62670812577626667 1.0195750438378191 0.6786014002273586 2.3169323743788852 2.3762423975743672 0.97340695557796042 -0.94648692478767626 -1.310470985880221 -0.58966314872154812 -1.0445622332135474 -0.47660474812439141 -0.5964822155595314 -0.26911020163470362 -0.64304943573863571 -0.78725678964799173 -0.08437479449327169 -0.037802822951561225 -1.310470985880221 0.22457543173878569 -1.6750480505180012
decision_type=2 2 2 2 2 2 2 2 2 2 2 2 2 2 2 2 2 2 2 2 2 2 2 2 2 2 2 2 2 2
left_child=1 2 7 13 5 -5 11 -1 15 10 -10 12 23 28 -15 16 17 -4 21 25 -21 -18 -22 -7 -25 -20 -12 -28 -3 -30
right_child=-2 3 8 4 -6 6 -8 -9 9 -11 26 -13 -14 14 -16 -17 18 -19 19 20 22 -23 -24 24 -26 -27 27 -29 29 -31
leaf_value=0.00098913252638238992 -0.0010490821761777625 3.0220471582240637e-06 0.00090428049772289462 -0.00099426038751698797 0.00015658872318324158 -0.00048466408497188244 -0.00092087740928906451 0.00037997187431246173 0.00073677246066692628 -0.00016483380255522207 -3.8004786496595387e-05 -0.00059839306115463844 -0.00048311587531894807 0.0021949031403779074 -5.8956496927352697e-05 -0.00025015205298273703 9.2899515599062949e-05 9.6255421860490082e-05 -0.00059009212893882551 -0.00023017527941038231 0.00070588974372273489 0.00056670104539287942 0.00013472329110999663 0.00047596762589584556 -6.8523734047226345e-05 -9.4609237468102936e-05 0.00082340161758475002 0.00026310929963338736 -0.00085954562155893645 -4.775691417438087e-05
leaf_weight=27 36 6041 23 30 84 25 23 107 38 39 53 32 44 37 482 61 221 43 45 59 31 35 52 31 135 50 20 110 20 2044
leaf_count=27 36 6041 23 30 84 25 23 107 38 39 53 32 44 37 482 61 221 43 45 59 31 35 52 31 135 50 20 110 20 2044
internal_value=-1.87024e-12 3.7609e-06 0.000164098 -1.42477e-05 -0.000210081 -0.000306331 -0.000235166 0.000502713 0.000112536 0.000249864 0.000323046 -0.000176097 -0.000118593 -5.07369e-06 0.000101723 5.49463e-05 8.82397e-05 0.00037784 4.94697e-05 -6.74125e-05 0.000107802 0.000157677 0.000348051 -3.46194e-05 3.31584e-05 -0.000329312 0.000237136 0.000349308 -1.19124e-05 -5.56231e-05
internal_weight=10078 10042 1014 9028 404 320 290 134 880 260 221 267 235 8624 519 620 559 66 493 237 142 256 83 191 166 95 183 130 8105 2064
internal_count=10078 10042 1014 9028 404 320 290 134 880 260 221 267 235 8624 519 620 559 66 493 237 142 256 83 191 166 95 183 130 8105 2064
is_linear=0
shrinkage=0.03


Tree=14
num_leaves=31
num_cat=0
split_feature=3 3 5 3 7 7 4 3 0 2 3 0 6 4 6 6 2 5 8 4 0 0 6 7 2 2 0 8 4 6
split_gain=0.0415697 0.0303376 0.0214303 0.0192243 0.0243051 0.0225265 0.0184167 0.0472994 0.015252 0.0148527 0.0145837 0.00830527 0.202116 0.00860394 0.0118421 0.0103158 0.00905315 0.0145767 0.0100357 0.00923988 0.0092515 0.0088993 0.00798423 0.007192 0.00942277 0.00676999 0.00740412 0.00641758 0.00686078 0.0063577
threshold=2.512859689433999 -1.4858537234370035 -0.98994504733150523 0.36119558180380612 -1.601327027763549 -1.3613568920182597 -0.91969957571935701 1.7016580215816062 -0.61240848188237706 -2.6189875610684736 1.8507010582666805 2.3632946870634952 -0.51912102639675706 -0.67757427486451449 -1.4050976483299171 1.1342372832349803 0.68039782701913565 1.44226743619902 -1.2520018185741908 -2.1808436304612493 -0.57294091580415085 -0.5401563561225573 0.34877215688513291 0.30564479914158482 -1.0087504550952922 -0.30181781466511376 -0.60837345915233476 -0.67715093131554505 -1.0757324845335925 0.72902413189758086
decision_type=2 2 2 2 2 2 2 2 2 2 2 2 2 2 2 2 2 2 2 2 2 2 2 2 2 2 2 2 2 2
left_child=1 2 -1 11 -5 -6 7 27 -8 -4 25 13 -13 14 -3 16 17 18 -16 -20 29 -22 -23 24 -11 -10 -27 -7 -29 -21
right_child=-2 3 9 4 5 6 8 -9 10 23 -12 12 -14 -15 15 -17 -18 -19 19 20 21 22 -24 -25 -26 26 -28 28 -30 -31
leaf_value=0.00093892413058451244 -0.001017609706420141 0.00069248861621599642 0.00098357968800701187 -0.0008083588272480793 0.00077440878532278085 -0.00060434753500157969 -0.00021250660937240944 -0.001737266607507081 -0.00013188647240709045 -0.00014156453740063376 0.00074360479345119996 0.0022647563361160054 -5.5061937561157068e-05 -1.2652448551793096e-06 0.00063071300078613253 0.00045524335542663201 0.0005293392638718201 -0.00059378482390787788 -0.00050333670453824194 0.00019855198353305195 -0.00059591484712215998 -0.00014931297123309506 0.00035393581444575258 -0.00017047579152858815 0.00037591683622954444 0.00049278534312593124 6.6945707108704764e-06 -7.5758952303219517e-06 -0.00045905426065070428 -0.00027533995020868521
leaf_weight=42 36 30 20 41 28 30 414 20 352 44 23 37 391 6521 26 61 33 33 28 283 29 112 38 54 113 29 1025 116 41 28
leaf_count=42 36 30 20 41 28 30 414 20 352 44 23 37 391 6521 26 61 33 33 28 283 29 112 38 54 113 29 1025 116 41 28
internal_value=6.28701e-13 3.64807e-06 0.00031557 -5.06874e-06 -8.50312e-05 -7.07596e-05 -8.23034e-05 -0.000350608 -5.21683e-05 0.000202232 -5.71618e-06 1.70804e-05 0.000145483 9.47077e-06 0.000109342 8.32696e-05 4.60723e-05 1.84331e-05 5.55713e-05 2.67032e-05 5.69912e-05 -0.000114833 -2.18233e-05 0.000128171 0.00023089 -1.79739e-05 2.0069e-05 -0.000202302 -0.000125478 0.000155886
internal_weight=10078 10042 273 9769 2119 2078 2050 207 1843 231 1429 7650 428 7222 701 671 610 577 544 518 490 179 150 211 157 1406 1054 187 157 311
internal_count=10078 10042 273 9769 2119 2078 2050 207 1843 231 1429 7650 428 7222 701 671 610 577 544 518 490 179 150 211 157 1406 1054 187 157 311
is_linear=0
shrinkage=0.03


Tree=15
num_leaves=31
num_cat=0
split_feature=3 3 1 3 7 2 6 2 4 5 6 6 7 2 4 8 4 0 1 2 0 6 0 3 4 4 1 0 7 8
split_gain=0.0391129 0.0292387 0.0176771 0.0160986 0.0147264 0.0159626 0.0120827 0.00832523 0.0069136 0.00734364 0.0110154 0.00757215 0.00695242 0.0119248 0.00687018 0.00678688 0.00772035 0.00653686 0.158092 0.00634442 0.0146643 0.0136501 0.01311 0.00673276 0.00613744 0.0122963 0.00547718 0.00546829 0.00726585 0.00533622
threshold=2.512859689433999 -0.69644629365156119 -0.6379992317963693 1.1840262963296082 0.40112925315597764 -0.7607412707914859 1.5419305807304788 -1.3865463308229542 1.5421315123950921 -0.94648692478767626 -0.48852194132190313 -1.2146935153004457 -0.22282199365539176 -0.63558042962984584 0.78384815199246261 1.0195750438378191 0.8533066862617692 2.3632946870634952 2.4279800849206938 -1.0445622332135474 -0.57697593853419316 -0.67864245920906463 -0.38279046965090829 -1.4858537234370068 -1.1557548303589189 -0.85044307790793827 -0.56882534912826899 -0.64304943573863571 -0.90948533711609347 1.9680144247550422
decision_type=2 2 2 2 2 2 2 2 2 2 2 2 2 2 2 2 2 2 2 2 2 2 2 2 2 2 2 2 2 2
left_child=1 2 7 17 5 -5 15 -1 9 10 -4 -11 -12 -14 19 16 27 29 -19 20 21 -13 -22 -23 -21 -26 -6 -7 -29 -3
right_child=-2 3 8 4 26 6 -8 -9 -10 11 12 14 13 -15 -16 -17 -18 18 -20 24 22 23 -24 -25 25 -27 -28 28 -30 -31
leaf_value=0.00097954142150347644 -0.00098708139790687705 -1.3832759528325493e-05 0.00095653407466174531 -0.00095028032327536488 -2.8773634677868279e-06 -0.00045245533981360493 -0.00088313342112561922 0.00036034342909876542 -0.00032234251729360865 -0.00028026164540936773 0.00062494706170147525 0.00077254550518773607 -0.00043583624449739644 0.00048322466085664928 0.0003746439605783962 -0.00057640518050902753 -0.00051498741425651435 0.001986485998483683 -5.4930914224997766e-05 -0.00037870269088307397 -0.00093704897894187722 -0.0005067046212830714 -6.7629771703552147e-05 0.00014863135048112463 0.0008669442600304526 0.00012273713763101359 0.00052696079090237618 0.00044676443416392426 -6.6448061317411568e-05 0.00021974367657073824
leaf_weight=23 36 8056 22 30 59 25 23 130 33 47 23 24 27 24 80 32 36 37 442 20 27 21 37 43 21 412 25 30 144 89
leaf_count=23 36 8056 22 30 59 25 23 130 33 47 23 24 27 24 80 32 36 37 442 20 27 21 37 43 21 412 25 30 144 89
internal_value=1.25927e-12 3.53863e-06 0.000156284 -1.36173e-05 -0.000198707 -0.000291506 -0.000223357 0.000453425 0.000103481 0.000120453 0.00036716 8.80977e-05 0.00019194 -3.33699e-06 0.000113372 -0.000166522 -0.000110709 -4.94655e-06 0.000102757 7.88236e-05 -8.88893e-05 0.000162403 -0.000434416 -6.64008e-05 0.000135098 0.00015883 0.000154813 -3.75727e-05 2.20369e-05 -1.12805e-05
internal_weight=10078 10042 1014 9028 404 320 290 153 861 828 96 732 74 51 685 267 235 8624 479 605 152 88 64 64 453 433 84 199 174 8145
internal_count=10078 10042 1014 9028 404 320 290 153 861 828 96 732 74 51 685 267 235 8624 479 605 152 88 64 64 453 433 84 199 174 8145
is_linear=0
shrinkage=0.03


Tree=16
num_leaves=31
num_cat=0
split_feature=3 0 3 5 3 7 7 2 0 0 2 0 6 4 8 1 0 6 5 4 2 6 2 5 1 2 0 6 4 1
split_gain=0.0368905 0.0791678 0.0270662 0.0197406 0.0147067 0.0226806 0.0207926 0.0133938 0.0127385 0.0103341 0.00810669 0.00743231 0.190185 0.00805322 0.0111949 0.0116549 0.0238229 0.0134933 0.0148158 0.00724443 0.0113087 0.00722164 0.00718091 0.00768635 0.00750003 0.0122637 0.0107247 0.00696047 0.00713102 0.00592175
threshold=2.0281924438166299 -0.59362040729561771 -1.4858537234370035 -0.98994504733150523 0.36119558180380612 -1.601327027763549 -1.3613568920182597 -2.6189875610684736 -0.62854857280254628 -0.63813175178639658 -0.093488274911109864 2.3632946870634952 -0.51912102639675706 -0.67757427486451449 -1.2520018185741908 -0.5660660058031316 -0.54973953510640772 0.63579058477827055 0.59869554034894945 -0.78766372806263518 -1.0445622332135474 0.37407509212708773 1.3464989805871503 -1.3614187331315795 -0.63381264192374698 0.69946928260118224 -0.63712299610388601 1.1342372832349803 -2.1808436304612493 2.4279800849206938
decision_type=2 2 2 2 2 2 2 2 2 2 2 2 2 2 2 2 2 2 2 2 2 2 2 2 2 2 2 2 2 2
left_child=2 9 3 -1 11 -6 -7 -5 22 -2 21 13 -13 14 -4 27 -17 18 -18 -9 -21 -10 23 -8 25 26 -25 28 -16 -14
right_child=1 -3 4 7 5 6 8 19 10 -11 -12 12 29 -15 15 16 17 -19 -20 20 -22 -23 -24 24 -26 -27 -28 -29 -30 -31
leaf_value=0.00089823568472638729 -0.00038115724408999086 -0.0022714606302324681 0.00059304294775938617 0.00093316518003121011 -0.00079051014882190013 0.00075172880017622184 0.00022869501680392642 0.00057974253005037702 -8.5416753571805647e-05 0.00041221591778263576 4.1639619575049589e-06 0.0021935062639091185 -0.00044784831272409064 -1.3170367942021911e-06 -0.00031731763332631561 -0.0010709719748618746 1.7054844045687363e-05 0.00062894007876121362 -0.00079470813856460151 -0.00039997810994324163 0.00017548868564084966 -0.00035944836081945998 -0.00076232310708146541 -0.0005085496205774016 -0.00066529383209294442 0.00037888337298580966 0.00018185262629534312 0.00050930818315068991 0.00015569698625995444 -2.1943671709577706e-05
leaf_weight=42 45 20 40 20 39 28 29 27 542 22 1128 37 32 6521 31 21 129 26 24 39 145 103 25 81 39 27 27 46 384 359
leaf_count=42 45 20 40 20 39 28 29 27 542 22 1128 37 32 6521 31 21 129 26 24 39 145 103 25 81 39 27 27 46 384 359
internal_value=5.75613e-13 -0.000615087 5.35607e-06 0.00029996 -2.91999e-06 -7.39017e-05 -6.01275e-05 0.000191182 -7.14878e-05 -0.000120647 -4.43441e-05 1.62683e-05 0.000137736 9.0697e-06 0.000105692 7.61998e-05 -0.000115054 -2.9077e-06 -0.000110281 0.000120852 5.35147e-05 -0.000129177 -0.000282566 -0.000223483 -0.000298845 -0.000192983 -0.000335949 0.000159173 0.000120363 -5.68003e-05
internal_weight=10078 87 9991 273 9718 2068 2029 231 2001 67 1773 7650 428 7222 701 661 200 179 153 211 184 645 228 203 174 135 108 461 415 391
internal_count=10078 87 9991 273 9718 2068 2029 231 2001 67 1773 7650 428 7222 701 661 200 179 153 211 184 645 228 203 174 135 108 461 415 391
is_linear=0
shrinkage=0.03


Tree=17
num_leaves=31
num_cat=0
split_feature=3 3 0 3 7 2 6 8 0 2 4 2 1 3 5 2 2 1 0 2 0 2 5 5 7 6 1 7 4 7
split_gain=0.035474 0.0265513 0.0162752 0.0141974 0.0137935 0.0149214 0.0112442 0.00666974 0.00905825 0.00654605 0.00961758 0.00913035 0.00923102 0.00882598 0.0116769 0.00789172 0.0253 0.00776046 0.0103056 0.0102334 0.00888958 0.00609679 0.00587138 0.207526 0.0141982 0.0075032 0.0285197 0.00725919 0.00703696 0.0161863
threshold=2.512859689433999 -0.69644629365156119 -0.64708445846867801 1.1840262963296082 0.40112925315597764 -0.7607412707914859 1.5419305807304788 0.17047936512353981 -0.58668521197835755 -0.13493653286527815 0.97340695557796042 0.82960222246866844 -0.62670812577626667 -1.4858537234370068 -0.98994504733150523 -1.0445622332135474 -1.474652171673779 -0.58966314872154812 -0.47660474812439141 -1.3362805195253318 -0.55881833624900301 0.01358614765291522 0.30525830006486548 0.29181914387176749 -1.4228305123132767 -1.8445021636045424 -0.63882386313491601 -1.8444489091597831 1.6638982793015453 0.21316517733632098
decision_type=2 2 2 2 2 2 2 2 2 2 2 2 2 2 2 2 2 2 2 2 2 2 2 2 2 2 2 2 2 2
left_child=1 2 -1 22 5 -5 7 8 -7 10 13 12 -11 14 -4 16 -16 -15 20 -20 -19 -14 23 25 27 26 -3 -24 -27 -30
right_child=-2 3 9 4 -6 6 -8 -9 -10 11 -12 -13 21 17 15 -17 -18 18 19 -21 -22 -23 24 -25 -26 28 -28 -29 29 -31
leaf_value=0.00078458392966006491 -0.00094004367691619931 0.00066631896603344513 0.00097378268106175319 -0.00091353497852105653 0.00015534360656342219 -0.00017657042504420103 -0.00084718759171664715 -0.00040032419426907297 0.00030910364248362991 0.0006791611593764495 -0.00024572315155858853 -0.00016822369652800263 0.00071710297168465326 0.00016550921959623615 0.00047357620664115527 0.0004135114135725379 -0.00084800058818390502 -7.8722742629387153e-05 -0.00039069285635196134 0.00024033209638633205 -0.00067797330999956162 0.00016210833509674758 -0.00015068245953774417 0.0021904286301623172 -3.7888019512421667e-05 -3.7672990707731926e-06 -0.00055572573943063616 -0.00088480784247318902 -0.00042901818566707756 0.00044885779608193842
leaf_weight=35 36 55 21 30 84 149 23 73 45 51 74 40 20 259 32 73 22 56 30 101 37 163 22 39 1871 6472 25 27 89 24
leaf_count=35 36 55 21 30 84 149 23 73 45 51 74 40 20 259 32 73 22 56 30 101 37 163 22 39 1871 6472 25 27 89 24
internal_value=1.24448e-12 3.37e-06 0.000148926 -1.29785e-05 -0.000186796 -0.000276607 -0.000210718 -0.000155891 -6.39141e-05 0.000126201 7.78395e-05 0.000250635 0.000322235 0.000115785 0.000318474 0.000210116 -6.4844e-05 5.36773e-05 -7.56283e-05 9.58226e-05 -0.000317134 0.000222763 -4.83583e-06 8.41127e-06 -5.10903e-05 -4.35673e-06 0.00028443 -0.000555201 -7.86515e-06 -0.000242567
internal_weight=10078 10042 1014 9028 404 320 290 267 194 979 705 274 234 631 148 127 54 483 224 131 93 183 8624 6704 1920 6665 80 49 6585 113
internal_count=10078 10042 1014 9028 404 320 290 267 194 979 705 274 234 631 148 127 54 483 224 131 93 183 8624 6704 1920 6665 80 49 6585 113
is_linear=0
shrinkage=0.03


Tree=18
num_leaves=31
num_cat=0
split_feature=0 3 0 3 6 7 7 3 1 0 0 2 6 2 2 4 2 1 0 8 1 5 0 1 4 2 4 4 7 6
split_gain=0.0337887 0.0245955 0.0153559 0.0143683 0.0206456 0.015738 0.0262204 0.0149349 0.013155 0.00795612 0.152935 0.00678876 0.0085512 0.00694835 0.00625728 0.0102154 0.00859074 0.00868547 0.00819942 0.00687874 0.0132941 0.00770262 0.00820146 0.013738 0.00768064 0.00683562 0.00605157 0.00965931 0.00717598 0.00714146
threshold=3.387181704811725 -0.69644629365156119 -0.64708445846867801 0.86544544220223918 1.5419305807304788 0.40112925315597764 0.24472253964873308 1.7016580215816062 -0.59140756116847415 2.3632946870634952 2.4334032069979794 0.49086791838719301 -0.64543119737257892 1.116671938018708 -0.13493653286527815 1.5421315123950921 0.82960222246866844 -0.62670812577626667 -0.63762737394514135 -0.98968205160451472 -0.5595641048645893 0.97337342379342162 -0.58819834550212335 -0.45940311382109539 -0.85044307790793827 -0.41307212695181067 1.3049345252317759 1.2550543056423236 -0.71660195702841523 -1.4229653483139797
decision_type=2 2 2 2 2 2 2 2 2 2 2 2 2 2 2 2 2 2 2 2 2 2 2 2 2 2 2 2 2 2
left_child=1 2 -1 9 5 6 8 11 -5 26 -11 12 -7 -13 15 18 17 -16 -4 20 -20 22 24 -24 -21 -23 27 -3 -28 -30
right_child=-2 3 14 4 -6 7 -8 -9 -10 10 -12 13 -14 -15 16 -17 -18 -19 19 21 -22 25 23 -25 -26 -27 28 -29 29 -31
leaf_value=0.00076104643395436661 -0.00089288326727814582 -5.1782417866933884e-06 0.00038785350303022334 -0.00025122548325782308 -0.00084949313197284931 -0.00061524683533643832 -0.0012181019081201937 0.00085020737842569352 5.6708847830922228e-05 0.0019967893928302749 -4.4023779845347622e-05 0.00050211059588764321 8.5526519396808001e-05 -0.00012074550338891438 0.00065878632177105714 -0.00045833760806295509 -0.00016317697838530876 0.00021608058085997178 1.0810279520228505e-05 0.00067500580418854953 0.00095192586812614026 -0.00074482133911390395 -0.00035930724164488006 0.00011643487340701566 0.00012246135490022423 1.187805221310224e-05 -0.00050750790254908693 0.00058548485850915303 0.00045763788081239903 -0.00014059676008979627
leaf_weight=35 38 7575 78 338 35 25 21 24 198 36 403 40 42 27 51 31 40 183 35 25 22 21 90 139 240 22 43 25 20 176
leaf_count=35 38 7575 78 338 35 25 21 24 198 36 403 40 42 27 51 31 40 183 35 25 22 21 90 139 240 22 43 25 20 176
internal_value=1.86118e-12 3.37944e-06 0.000143624 -1.23414e-05 -0.000138077 -0.000103253 -0.000178215 0.000161014 -0.000137474 -9.49545e-07 0.000123332 3.75764e-05 -0.000175956 0.000251109 0.000121506 7.41075e-05 0.000243116 0.000312568 9.86697e-05 6.06961e-05 0.000374048 2.74353e-05 6.09568e-05 -7.0538e-05 0.000174588 -0.000357673 -7.90958e-06 -3.23527e-06 -0.000156549 -7.95524e-05
internal_weight=10078 10040 1012 9028 750 715 557 158 536 8278 439 134 67 67 977 703 274 234 672 594 57 537 494 229 265 43 7839 7600 239 196
internal_count=10078 10040 1012 9028 750 715 557 158 536 8278 439 134 67 67 977 703 274 234 672 594 57 537 494 229 265 43 7839 7600 239 196
is_linear=0
shrinkage=0.03


Tree=19
num_leaves=31
num_cat=0
split_feature=3 3 0 3 4 3 1 8 6 2 4 3 5 2 1 2 2 1 0 2 0 6 8 1 0 1 0 6 3 0
split_gain=0.0330064 0.0235079 0.0144042 0.0126774 0.0125366 0.0227456 0.0155031 0.0125417 0.00895082 0.00578632 0.00866674 0.0081108 0.0109407 0.00808303 0.00817216 0.00730845 0.0235596 0.00704236 0.00921649 0.00966938 0.00816805 0.00595134 0.00570499 0.00558831 0.00553824 0.144012 0.0054348 0.00541983 0.00533276 0.0052339
threshold=2.512859689433999 -0.69644629365156119 -0.64708445846867801 1.1840262963296082 -1.1883110082833657 1.7016580215816062 -0.58163885146568872 -0.029660812435566956 1.5419305807304788 -0.13493653286527815 0.97340695557796042 -1.4858537234370068 -0.98994504733150523 0.82960222246866844 -0.62670812577626667 -1.0445622332135474 -1.474652171673779 -0.58966314872154812 -0.47660474812439141 -1.3362805195253318 -0.55881833624900301 -0.037802822951561225 0.30585049885668286 -0.5964822155595314 2.3632946870634952 2.4279800849206938 -0.57407576594697529 -0.26913110141037083 -1.310470985880221 -0.60635594778731361
decision_type=2 2 2 2 2 2 2 2 2 2 2 2 2 2 2 2 2 2 2 2 2 2 2 2 2 2 2 2 2 2
left_child=1 2 -1 24 5 -5 8 27 -6 10 11 12 -4 14 -11 16 -14 23 20 -20 26 -16 -21 29 -3 -26 -19 -8 -23 -13
right_child=-2 3 9 4 6 -7 7 -9 -10 13 -12 17 15 -15 21 -17 -18 18 19 22 -22 28 -24 -25 25 -27 -28 -29 -30 -31
leaf_value=0.00073821503735546558 -0.00090675986022688445 -1.0267993120541618e-05 0.00093800438434949937 -0.00016076232075151479 -0.00016871834546270398 -0.0013421831527375616 0.00091461063666169401 -0.00018055817505621628 -0.00081585406724895746 0.00063902272678473412 -0.00023378862392033821 0.00015756585320310767 0.00045376764450338669 -0.00015828167766449041 -5.8341325164052113e-05 0.00039453574266501586 -0.00082154228187970477 -0.00029347249030251986 -0.00038411033696138469 0.00010339962360872463 -0.0006476054717711884 0.00076945143425837155 0.00063313406135421244 0.00049243770852243829 0.0018925880842112204 -5.5804174648633659e-05 0.0003233221769260126 0.00028622121748048812 0.00023690476935801352 -0.00026284368483409765
leaf_weight=35 36 8145 21 44 229 22 21 37 21 51 74 190 32 40 53 73 22 36 30 77 37 20 24 38 37 442 20 30 110 31
leaf_count=35 36 8145 21 44 229 22 21 37 21 51 74 190 32 40 53 73 22 36 30 77 37 20 24 38 37 442 20 30 110 31
internal_value=1.38017e-12 3.25068e-06 0.000140211 -1.21323e-05 -0.000176382 -0.000554569 -0.000102534 0.000239918 -0.000223078 0.000118832 7.33634e-05 0.000109384 0.000303688 0.000235822 0.000303191 0.000198801 -6.58031e-05 4.98462e-05 -7.33317e-05 8.88067e-05 -0.00030172 0.000209598 0.000229277 0.000156378 -4.4379e-06 9.46979e-05 -7.31887e-05 0.00054497 0.000318835 9.85944e-05
internal_weight=10078 10042 1014 9028 404 66 338 88 250 979 705 631 148 274 234 127 54 483 224 131 93 183 101 259 8624 479 56 51 130 221
internal_count=10078 10042 1014 9028 404 66 338 88 250 979 705 631 148 274 234 127 54 483 224 131 93 183 101 259 8624 479 56 51 130 221
is_linear=0
shrinkage=0.03


Tree=20
num_leaves=31
num_cat=0
split_feature=0 3 0 3 6 7 7 3 1 2 0 6 7 1 4 6 8 4 1 6 2 2 6 5 4 4 6 6 0 2
split_gain=0.0316187 0.0217318 0.0136424 0.0126911 0.0186945 0.0146154 0.0179653 0.0137668 0.0119989 0.00715033 0.00707305 0.143833 0.254761 0.00959348 0.00649327 0.00751178 0.0102222 0.0070902 0.00624614 0.00619351 0.00617429 0.00673941 0.00602545 0.00599772 0.00874855 0.0091134 0.00786295 0.00676789 0.00669968 0.00639666
threshold=3.387181704811725 -0.69644629365156119 -0.63813175178639658 0.86544544220223918 1.5419305807304788 0.47382031821513831 0.37455771591264597 1.7016580215816062 -0.59140756116847415 -1.5256138826287902 2.3632946870634952 -0.51912102639675706 -0.029429747572220503 2.4279800849206938 1.5421315123950921 -1.2146935153004457 -1.0418056939385207 -1.4232099607917068 -0.57161640904335054 -0.99002946919309787 0.49086791838719301 1.1166724855975947 -1.4229653483139797 -2.4189890788819697 1.3049345252317759 1.2550543056423236 -1.4229653483139797 1.8211141367489185 -0.59160289593059656 0.01358614765291522
decision_type=2 2 2 2 2 2 2 2 2 2 2 2 2 2 2 2 2 2 2 2 2 2 2 2 2 2 2 2 2 2
left_child=1 2 9 10 5 6 8 20 -5 -1 23 12 -12 -13 15 22 18 -18 -17 -19 -7 -22 -4 -3 25 27 -26 -25 29 -28
right_child=-2 3 14 4 -6 7 -8 -9 -10 -11 11 13 -14 -15 -16 16 17 19 -20 -21 21 -23 -24 24 26 -27 28 -29 -30 -31
leaf_value=0.00085330279957916992 -0.00086373600603301863 0.00037368942933106746 1.5234582897392101e-05 -0.0002369637363607279 -0.000806644701265863 -0.00016594280740465648 -0.00091919576354686987 0.00083163314253397401 5.2206395650683543e-05 0.00030696288239706973 0.0042468675990239716 -0.00054883334872155335 -0.00029577960271853955 -2.1643770417237343e-05 -0.00029689178245167271 0.00027878613736902479 -0.00040365976397879424 0.00061611799384329717 0.00095461794258153534 0.00010480812882071454 0.00054507513715758575 -0.00012389289149407134 -0.00064855079830158501 -8.7472644989523266e-06 0.00030097049155021802 0.00056822834629565474 -0.00064414492219375271 0.0002434682666885753 5.0755836058496722e-06 -0.00022137514463232017
leaf_weight=27 38 37 32 338 35 61 27 24 209 107 20 34 25 360 37 32 24 22 20 691 33 23 20 7448 26 25 49 97 63 94
leaf_count=27 38 37 32 338 35 61 27 24 209 107 20 34 25 360 37 32 24 22 20 691 33 23 20 7448 26 25 49 97 63 94
internal_value=8.9591e-13 3.26912e-06 0.000135097 -1.15082e-05 -0.000129678 -9.65402e-05 -0.000163765 0.000177125 -0.000126476 0.000417046 -8.01835e-07 0.00011638 0.00172317 -6.71373e-05 9.20663e-05 0.000109179 0.000132196 0.000103513 0.000538721 0.000120585 4.28669e-05 0.00027032 -0.000240067 -7.36425e-06 -9.17135e-06 -3.60997e-06 -0.000190635 -5.50473e-06 -0.000252683 -0.00036624
internal_weight=10078 10040 1012 9028 750 715 574 141 547 134 8278 439 45 394 878 841 789 737 52 713 117 56 52 7839 7802 7570 232 7545 206 143
internal_count=10078 10040 1012 9028 750 715 574 141 547 134 8278 439 45 394 878 841 789 737 52 713 117 56 52 7839 7802 7570 232 7545 206 143
is_linear=0
shrinkage=0.03


Tree=21
num_leaves=31
num_cat=0
split_feature=3 3 0 3 7 7 4 3 0 3 3 3 2 4 6 6 2 5 7 7 7 5 5 1 4 8 0 4 2 0
split_gain=0.0307348 0.020814 0.0130299 0.0117499 0.0198195 0.0202175 0.0158079 0.0401288 0.0116357 0.0139631 0.00876728 0.21077 0.223479 0.0115097 0.00782117 0.00772752 0.00660431 0.0118482 0.00671316 0.00638966 0.0062876 0.00608991 0.00872574 0.0117806 0.00823976 0.00602479 0.00708725 0.00969065 0.00580882 0.00565822
threshold=2.512859689433999 -0.69644629365156119 -0.64708445846867801 0.36119558180380612 -1.601327027763549 -1.3613568920182597 -0.91969957571935701 1.7016580215816062 -0.61240848188237706 1.8507010582666805 0.018981246886015234 0.026740921452234761 0.21480247938173821 -0.64080602820095289 -1.4050976483299171 1.1342372832349803 0.68039782701913565 1.44226743619902 -1.1553638133680864 -0.35104144558227551 2.4363546096675015 0.88830775158327813 0.24434790552499944 -0.42768652387698702 0.44428964279136612 -0.67715093131554505 -0.58857662888306483 -1.1557548303589189 -0.40637143826623884 -0.60837345915233476
decision_type=2 2 2 2 2 2 2 2 2 2 2 2 2 2 2 2 2 2 2 2 2 2 2 2 2 2 2 2 2 2
left_child=1 2 -1 10 28 -6 7 25 -8 19 13 12 -12 14 -3 16 17 18 -16 21 -15 22 24 -24 -10 -7 27 -27 -5 -21
right_child=-2 3 -4 4 5 6 8 -9 9 -11 11 -13 -14 20 15 -17 -18 -19 -20 29 -22 -23 23 -25 -26 26 -28 -29 -30 -31
leaf_value=0.00070077189723295828 -0.00087499992883143321 0.0006243974459245622 0.00011167731955011583 -0.0010922224864480085 0.00074043260735509521 -0.00057270741771208117 -0.00018331302501884648 -0.0015969953690837429 1.4143193817879955e-05 0.00073050913137748187 -2.1227264613116858e-05 1.1203559535226928e-05 0.004463539453397971 -2.709004771162322e-05 0.00050794202380247643 0.00043718156716698463 0.00050473269794435631 -0.00059214221389713485 3.6394031053543225e-05 0.00044992537297730453 0.00038228865059128267 0.00029478227374056586 -0.00068323922434097362 0.00015415305084648674 -0.00042696983685800658 0.00031336044340754267 -0.00032772844031569548 -0.00035693344648461787 -0.00037783747106524449 1.0050814536346201e-05
leaf_weight=35 36 26 979 20 28 30 414 20 185 23 20 1340 20 4902 29 53 28 26 431 27 34 28 54 21 48 55 72 30 21 1043
leaf_count=35 36 26 979 20 28 30 414 20 185 23 20 1340 20 4902 29 53 28 26 431 27 34 28 54 21 48 55 72 30 21 1043
internal_value=9.59257e-13 3.13683e-06 0.000132011 -1.1338e-05 -7.31375e-05 -6.025e-05 -7.11861e-05 -0.000319762 -4.32668e-05 -2.69361e-06 7.61606e-06 7.52602e-05 0.00222116 -9.26744e-06 0.000115612 9.22815e-05 5.67178e-05 3.09063e-05 6.61221e-05 -1.46877e-05 -2.42702e-05 -0.000128815 -0.000167324 -0.000448769 -7.67299e-05 -0.00018316 -0.000108724 7.67861e-05 -0.000726318 2.11505e-05
internal_weight=10078 10042 1014 9028 2119 2078 2050 207 1843 1429 6909 1380 40 5529 593 567 514 486 460 1406 4936 336 308 75 233 187 157 85 41 1070
internal_count=10078 10042 1014 9028 2119 2078 2050 207 1843 1429 6909 1380 40 5529 593 567 514 486 460 1406 4936 336 308 75 233 187 157 85 41 1070
is_linear=0
shrinkage=0.03


Tree=22
num_leaves=31
num_cat=0
split_feature=0 3 1 3 7 7 4 3 0 3 0 0 6 4 1 8 7 0 4 2 6 1 8 1 4 2 6 5 6 2
split_gain=0.029686 0.0192012 0.0125222 0.0114313 0.0190466 0.0190224 0.0162633 0.0505958 0.0103894 0.0127606 0.00871001 0.00840898 0.178589 0.00818629 0.00788497 0.00751936 0.0149278 0.00704935 0.00702572 0.00685799 0.0068522 0.0166213 0.00665846 0.0113029 0.00773887 0.00655446 0.00619887 0.00596164 0.00902935 0.00651174
threshold=3.387181704811725 -0.69644629365156119 -0.6379992317963693 0.36119558180380612 -1.601327027763549 -1.3613568920182597 -1.2149068301213803 1.8507010582666805 -0.61114753727923887 1.8507010582666805 -0.58857662888306483 2.3632946870634952 -0.51912102639675706 1.2550543056423236 2.4279800849206938 -0.78906654730852355 0.59913919911222979 -0.62703543927878036 1.5421315123950921 -0.093488274911109864 -1.8445021636045424 -0.63882386313491601 -0.98968205160451472 -0.5595641048645893 -1.4232099607917068 -1.3865463308229542 0.56224266259603317 -0.84511025588046851 -0.47906247743063313 -0.13493653286527815
decision_type=2 2 2 2 2 2 2 2 2 2 2 2 2 2 2 2 2 2 2 2 2 2 2 2 2 2 2 2 2 2
left_child=1 2 25 11 -5 -6 7 10 13 19 17 20 -13 15 -14 16 -8 -7 22 -10 21 -3 23 -4 -24 -1 -17 28 -26 -29
right_child=-2 3 18 4 5 6 8 -9 9 -11 -12 12 14 -15 -16 26 -18 -19 -20 -21 -22 -23 24 -25 27 -27 -28 29 -30 -31
leaf_value=0.00084395237388494224 -0.00083692239419753218 0.00049233197401601654 9.8129357460753186e-05 -0.00070370624207758466 0.00071821963476915182 -0.00022623766174910997 -0.000119419138358147 -0.001743556988408922 -0.00011075622326512529 0.00061471453383625161 -0.00045218171971638102 0.0021871241100681281 -0.00051860196498549368 -0.00060449181653287568 -1.7013683718629274e-05 -0.00013153520785472752 0.00084247577603491664 0.00041885069465347294 -0.00035361607795493906 2.6557819101417176e-05 -3.5749145813293604e-06 -0.00042423811300977831 -0.00043410773523366798 0.0009254710050299763 0.00082620715600964815 0.00029453808234001583 -0.00045257233241996302 -6.9066357463512806e-06 0.00015533808802631807 0.0002023952887402582
leaf_weight=23 38 69 42 42 28 30 53 21 500 29 44 35 31 36 313 301 20 31 32 948 6407 24 26 23 23 130 66 436 84 193
leaf_count=23 38 69 42 42 28 30 53 21 500 29 44 35 31 36 313 301 20 31 32 948 6407 24 26 23 23 130 66 436 84 193
internal_value=1.34768e-12 3.16764e-06 0.000127083 -1.07227e-05 -7.112e-05 -5.85103e-05 -6.89713e-05 -0.000399313 -4.76589e-05 -8.37818e-06 -0.000130464 8.14539e-06 0.000145508 -0.000169545 -6.2215e-05 -0.000133958 0.000144114 0.000101594 8.25459e-05 -2.08573e-05 1.3611e-07 0.000255798 9.94228e-05 0.000390881 7.45608e-05 0.00037713 -0.000189269 9.25301e-05 0.000299544 5.73148e-05
internal_weight=10078 10040 1012 9028 2149 2107 2079 126 1953 1477 105 6879 379 476 344 440 73 61 859 1448 6500 93 827 65 762 153 367 736 107 629
internal_count=10078 10040 1012 9028 2149 2107 2079 126 1953 1477 105 6879 379 476 344 440 73 61 859 1448 6500 93 827 65 762 153 367 736 107 629
is_linear=0
shrinkage=0.03


Tree=23
num_leaves=31
num_cat=0
split_feature=3 0 3 5 2 3 7 7 0 1 2 4 2 5 6 3 3 5 4 6 6 2 5 6 3 1 1 5 2 4
split_gain=0.0284503 0.0764359 0.0182689 0.0172108 0.0107386 0.0106339 0.0175751 0.0176033 0.00935798 0.00856882 0.00725482 0.00702944 0.00918506 0.0066616 0.00651724 0.00639318 0.197776 0.218162 0.0118242 0.0098183 0.00888289 0.00751003 0.0106896 0.00802488 0.0126721 0.0060114 0.0064028 0.00582586 0.00578943 0.00640253
threshold=2.0281924438166299 -0.59362040729561771 -1.4858537234370035 -0.98994504733150523 -2.6189875610684736 0.36119558180380612 -1.601327027763549 -1.3613568920182597 -0.62854857280254628 -0.63882386313491601 -0.093488274911109864 -0.78766372806263518 -1.0445622332135474 -1.3614187331315795 0.37407509212708773 0.018981246886015234 0.026740921452234761 -0.06369845473345527 -0.64080602820095289 -1.4050976483299171 1.1342372832349803 0.68039782701913565 1.44226743619902 -0.94657129190599987 -1.19876767859232 -0.63466898985223785 -0.63584250368016992 1.3048507636976534 0.092628361430938375 1.5421315123950921
decision_type=2 2 2 2 2 2 2 2 2 2 2 2 2 2 2 2 2 2 2 2 2 2 2 2 2 2 2 2 2 2
left_child=2 9 3 -1 -5 15 -7 -8 13 -2 14 -6 -13 -9 -10 18 17 -17 19 -4 21 22 23 -21 -25 26 -15 -14 -12 -30
right_child=1 -3 5 4 11 6 7 8 10 -11 28 12 27 25 -16 16 -18 -19 -20 20 -22 -23 -24 24 -26 -27 -28 -29 29 -31
leaf_value=0.00080536674009636046 -0.00028355751328332267 -0.0021677041514776649 0.00063853081327021842 0.00080954800592735409 0.00053422733766233751 -0.00069327162054833025 0.00069667304609278549 0.00017489893749007024 -7.6197181820419834e-05 0.00044780140592982725 0.00023644337784112988 -0.00039283374846071147 0.00021048247434144978 -0.00028818722734132065 -0.0003365214205029049 -6.4171593374339863e-05 1.0628022026954132e-05 0.0043669172465929471 -1.3402636461140638e-05 0.00064093280144983768 0.00044445627743883403 0.00050694225585175441 -0.00049818165654869518 -0.00067927365656942132 7.2490892161354144e-05 -0.0005970317841638462 0.00028840030508581551 -0.00030118390277493744 -1.4175862107047426e-06 -0.00054343739777687006
leaf_weight=42 46 20 31 20 27 39 28 30 542 21 92 39 121 130 103 20 1340 20 5557 21 59 32 32 21 517 48 20 24 1016 20
leaf_count=42 46 20 31 20 27 39 28 30 542 21 92 39 121 130 103 20 1340 20 5557 21 59 32 32 21 517 48 20 24 1016 20
internal_value=-3.07257e-12 -0.00054016 4.70362e-06 0.00024674 0.000145171 -2.09571e-06 -6.24538e-05 -5.03287e-05 -6.07815e-05 -5.43256e-05 -3.75165e-05 8.21971e-05 1.58666e-05 -0.000241697 -0.000117768 1.42207e-05 7.26786e-05 0.00215137 1.35437e-06 0.000116368 9.26333e-05 5.93146e-05 3.50775e-05 6.5604e-05 4.31469e-05 -0.000304817 -0.000211309 0.000125793 8.37214e-06 -1.18813e-05
internal_weight=10078 87 9991 273 231 9718 2068 2029 2001 67 1773 211 184 228 645 7650 1380 40 6270 713 682 623 591 559 538 198 150 145 1128 1036
internal_count=10078 87 9991 273 231 9718 2068 2029 2001 67 1773 211 184 228 645 7650 1380 40 6270 713 682 623 591 559 538 198 150 145 1128 1036
is_linear=0
shrinkage=0.03


Tree=24
num_leaves=31
num_cat=0
split_feature=0 3 0 3 7 7 4 3 0 3 0 0 0 4 8 7 0 6 0 2 6 4 4 5 5 0 0 2 1 1
split_gain=0.0278245 0.0175603 0.0114083 0.00994617 0.0168673 0.0168236 0.0149769 0.0466535 0.00946866 0.0130672 0.00823788 0.0079286 0.176232 0.00765188 0.00702775 0.0139794 0.00650651 0.00640808 0.0156866 0.00609613 0.005838 0.00571025 0.00667165 0.00741873 0.0082102 0.00868781 0.00651301 0.00615259 0.00568981 0.00837294
threshold=3.387181704811725 -0.69644629365156119 -0.64708445846867801 0.36119558180380612 -1.601327027763549 -1.3613568920182597 -1.2149068301213803 1.8507010582666805 -0.61114753727923887 1.8507010582666805 -0.58857662888306483 2.3632946870634952 2.4334032069979794 1.2550543056423236 -0.78906654730852355 0.59913919911222979 -0.62703543927878036 -1.8445021636045424 -0.64153630221486979 -0.093488274911109864 0.56224266259603317 1.3450625442877169 1.1343769495584424 -1.1554657727930693 -1.4228803810929909 -0.62930513956442924 -0.59160289593059656 0.69946954219417712 -0.64887802214719847 -0.64342276867681181
decision_type=2 2 2 2 2 2 2 2 2 2 2 2 2 2 2 2 2 2 2 2 2 2 2 2 2 2 2 2 2 2
left_child=1 2 -1 11 -5 -6 7 10 13 19 16 17 -13 14 15 -8 -7 18 -3 -10 -16 22 23 24 -19 -26 28 -24 -23 -30
right_child=-2 3 -4 4 5 6 8 -9 9 -11 -12 12 -14 -15 20 -17 -18 21 -20 -21 -22 26 27 -25 25 -27 -28 -29 29 -31
leaf_value=0.00065374492135431082 -0.00081025649896458295 0.00048308656835134193 0.000102504017747882 -0.00066185143745510033 0.00067577284964499991 -0.00021264710265677422 -0.00011222321168082449 -0.001672347018362156 -0.00010396054203737093 0.00062395776888949728 -0.00043624839122248781 0.002308233366873596 -5.2315224988760664e-05 -0.00058094353337461747 -0.00012347173775329956 0.00081861355547880514 0.00040710621557786173 3.7635441641765139e-05 -0.00039573767728870733 2.5501784993473018e-05 -0.00043502410283455684 0.00019450437344988001 7.6488048040934285e-05 -8.9642365597011856e-06 0.00094720036556412068 0.00022007241742685437 0.00015396197993885089 0.00060002850809870586 -0.00078590349703956924 -0.00020422807966724574
leaf_weight=35 38 68 977 42 28 30 53 21 500 29 44 31 348 36 301 20 31 137 25 948 66 21 58 5920 21 50 44 31 29 96
leaf_count=35 38 68 977 42 28 30 53 21 500 29 44 31 348 36 301 20 31 137 25 948 66 21 58 5920 21 50 44 31 29 96
internal_value=-2.36301e-12 3.06671e-06 0.000121569 -1.02169e-05 -6.65544e-05 -5.4688e-05 -6.45259e-05 -0.000381534 -4.40737e-05 -6.574e-06 -0.000123372 7.38299e-06 0.000140764 -0.000160433 -0.000126028 0.000142801 0.00010231 -3.94144e-07 0.000246843 -1.92021e-05 -0.0001795 -3.98289e-06 9.6828e-07 -2.77699e-06 0.000173322 0.000435138 -0.00016599 0.000258845 -0.000262414 -0.000339177
internal_weight=10078 10040 1012 9028 2149 2107 2079 126 1953 1477 105 6879 379 476 440 73 61 6500 93 1448 367 6407 6217 6128 208 71 190 89 146 125
internal_count=10078 10040 1012 9028 2149 2107 2079 126 1953 1477 105 6879 379 476 440 73 61 6500 93 1448 367 6407 6217 6128 208 71 190 89 146 125
is_linear=0
shrinkage=0.03


Tree=25
num_leaves=31
num_cat=0
split_feature=3 3 0 3 7 7 4 3 0 3 3 3 2 4 6 6 6 8 6 6 2 2 5 7 7 7 8 0 5 5
split_gain=0.0266187 0.0168865 0.0109368 0.00916755 0.0154809 0.0158443 0.0136177 0.033556 0.00942593 0.012364 0.0077312 0.185579 0.20898 0.0100718 0.00675684 0.00683856 0.00597202 0.00732714 0.00697474 0.00610108 0.00593715 0.00586824 0.010523 0.00630937 0.0058677 0.00584792 0.00565337 0.00640039 0.00565278 0.0083226
threshold=2.512859689433999 -0.69644629365156119 -0.63813175178639658 0.36119558180380612 -1.601327027763549 -1.3613568920182597 -0.91969957571935701 1.7016580215816062 -0.61240848188237706 1.8507010582666805 0.018981246886015234 0.026740921452234761 0.21480247938173821 -0.64080602820095289 -1.4050976483299171 1.1342372832349803 -1.2146935153004457 -0.98968205160451472 -0.99002946919309787 -1.4229653483139797 -1.5256138826287902 0.68039782701913565 1.44226743619902 -1.1553638133680864 2.4363546096675015 -0.35104144558227551 -0.67715093131554505 -0.61921758273932348 0.88830775158327813 0.24434790552499944
decision_type=2 2 2 2 2 2 2 2 2 2 2 2 2 2 2 2 2 2 2 2 2 2 2 2 2 2 2 2 2 2
left_child=1 2 20 10 -5 -6 7 26 -8 25 13 12 -12 14 -3 21 19 -18 -19 -4 -1 22 23 -16 -15 28 -7 -28 29 -10
right_child=-2 3 16 4 5 6 8 -9 9 -11 11 -13 -14 24 15 -17 17 18 -20 -21 -22 -23 -24 -25 -26 -27 27 -29 -30 -31
leaf_value=0.00076901331750883002 -0.00081430332463545106 0.00058048926498696131 1.6720119664179427e-05 -0.00064198448777017067 0.00065549965881343396 -0.00054614529319223942 -0.00016313268079669058 -0.0014616682310588658 -6.9659702343563454e-05 0.00068937579193674458 -8.4700301260454583e-05 1.0038273755485738e-05 0.0042521447921753854 -2.5989404547899118e-05 0.0004896309242532628 0.00041035860693433655 0.00041713613020561514 0.0006146355052728072 6.0229631933798566e-05 -0.00064011589003712291 0.00027117429650388655 0.0004747586179291829 -0.00055905630861021697 3.2484398332244572e-05 0.00036948328745786376 2.2432147823429175e-05 0.00021027275583368132 -0.00021621726990823706 0.00028707631491540402 -0.00043300336224201601
leaf_weight=27 36 26 35 41 28 30 414 20 233 23 20 1340 20 4902 29 53 61 21 743 20 107 28 26 431 34 1070 44 113 28 75
leaf_count=27 36 26 35 41 28 30 414 20 233 23 20 1340 20 4902 29 53 61 21 743 20 107 28 26 431 34 1070 44 113 28 75
internal_value=4.5219e-13 2.91923e-06 0.000118999 -1.01185e-05 -6.47062e-05 -5.33162e-05 -6.29976e-05 -0.000293711 -3.70845e-05 -5.66679e-07 6.62355e-06 7.01451e-05 0.00208372 -9.23097e-06 0.000107588 8.59027e-05 8.05524e-05 0.000100731 7.54685e-05 -0.000222129 0.000371485 5.24472e-05 2.81165e-05 6.13045e-05 -2.32653e-05 -1.18531e-05 -0.000168796 -9.66914e-05 -0.000121035 -0.000158136
internal_weight=10078 10042 1014 9028 2119 2078 2050 207 1843 1429 6909 1380 40 5529 593 567 880 825 764 55 134 514 486 460 4936 1406 187 157 336 308
internal_count=10078 10042 1014 9028 2119 2078 2050 207 1843 1429 6909 1380 40 5529 593 567 880 825 764 55 134 514 486 460 4936 1406 187 157 336 308
is_linear=0
shrinkage=0.03


Tree=26
num_leaves=31
num_cat=0
split_feature=0 3 1 3 7 7 4 3 0 3 0 0 6 1 4 8 7 4 0 6 1 8 1 4 2 2 6 5 6 2
split_gain=0.0261169 0.0155121 0.010519 0.00871374 0.014946 0.0148773 0.0133127 0.0420584 0.00830332 0.0118252 0.00759093 0.00743653 0.165647 0.0087456 0.00718669 0.00670652 0.0131528 0.00669368 0.00618545 0.00598028 0.0149128 0.00597612 0.0104676 0.00745692 0.00575963 0.00568957 0.00550748 0.00546541 0.00833816 0.00618861
threshold=3.387181704811725 -0.69644629365156119 -0.6379992317963693 0.36119558180380612 -1.601327027763549 -1.3613568920182597 -1.2149068301213803 1.8507010582666805 -0.61114753727923887 1.8507010582666805 -0.58857662888306483 2.3632946870634952 -0.51912102639675706 2.4279800849206938 1.2550543056423236 -0.78906654730852355 0.59913919911222979 1.5421315123950921 -0.62703543927878036 -1.8445021636045424 -0.63882386313491601 -0.98968205160451472 -0.5595641048645893 -1.4232099607917068 0.36570666763648435 -0.093488274911109864 0.56224266259603317 -0.84511025588046851 -0.47906247743063313 0.31960467603691106
decision_type=2 2 2 2 2 2 2 2 2 2 2 2 2 2 2 2 2 2 2 2 2 2 2 2 2 2 2 2 2 2
left_child=1 2 24 11 -5 -6 7 10 14 25 18 19 -13 -14 15 16 -8 21 -7 20 -3 22 -4 -23 -1 -10 -17 28 -25 -29
right_child=-2 3 17 4 5 6 8 -9 9 -11 -12 12 13 -15 -16 26 -18 -19 -20 -21 -22 23 -24 27 -26 -27 -28 29 -30 -31
leaf_value=0.00042487073345910177 -0.00078500046832471657 0.00046231789549853168 8.4396178301955973e-05 -0.0006226132765212762 0.00063583467072541157 -0.00020453437411924823 -0.00010142245382426925 -0.0015848001777859669 -9.9824281376859284e-05 0.00059389094683614651 -0.00041442491023190085 0.0021023838057382298 -0.0005445681371906352 -1.6314810463271961e-05 -0.00055753597446406885 -0.0001144818705057012 0.00080147714470513165 -0.00035220216019297366 0.0003997346400959237 -4.0391882625335954e-06 -0.00040586752445960879 -0.00043286800071095619 0.00088057931978255508 0.00078840254254274717 -7.2968812845647328e-05 2.5246547891445607e-05 -0.00041708656748100609 7.5257445990066394e-06 0.00014372175398291023 0.00025704975217296223
leaf_weight=128 38 69 42 42 28 30 53 21 500 29 44 35 31 313 36 301 20 32 31 6407 24 26 23 23 25 948 66 521 84 108
leaf_count=128 38 69 42 42 28 30 53 21 500 29 44 35 31 313 36 301 20 32 31 6407 24 26 23 23 25 948 66 521 84 108
internal_value=1.60579e-12 2.97112e-06 0.000114348 -9.51377e-06 -6.22455e-05 -5.10754e-05 -6.03267e-05 -0.000359204 -4.10443e-05 -5.92795e-06 -0.000114085 6.95963e-06 0.000136135 -6.3919e-05 -0.000150008 -0.000116665 0.000145947 7.35286e-05 0.000102553 -5.72302e-07 0.00023827 9.00019e-05 0.000366123 6.64483e-05 0.000343524 -1.79409e-05 -0.000168901 8.40872e-05 0.000282298 5.03693e-05
internal_weight=10078 10040 1012 9028 2149 2107 2079 126 1953 1477 105 6879 379 344 476 440 73 859 61 6500 93 827 65 762 153 1448 367 736 107 629
internal_count=10078 10040 1012 9028 2149 2107 2079 126 1953 1477 105 6879 379 344 476 440 73 859 61 6500 93 827 65 762 153 1448 367 736 107 629
is_linear=0
shrinkage=0.03


Tree=27
num_leaves=31
num_cat=0
split_feature=0 3 0 5 3 7 7 4 1 0 3 6 0 5 4 0 8 4 5 4 4 6 5 0 0 8 7 4 5 6
split_gain=0.0245734 0.0145954 0.00995855 0.00840444 0.007797 0.0118226 0.0139267 0.0102222 0.0373954 0.00795158 0.0111263 0.00770547 0.142026 0.232899 0.0228683 0.0174385 0.0100994 0.00787184 0.00728257 0.00671701 0.00655238 0.0065487 0.00819575 0.00651006 0.00903127 0.00638195 0.0123755 0.00634192 0.00572309 0.00790832
threshold=3.387181704811725 -0.69644629365156119 -0.64708445846867801 3.0035765456941061 0.36119558180380612 -1.601327027763549 -1.3613568920182597 -1.2149068301213803 -0.45940311382109539 -0.61114753727923887 1.8507010582666805 -0.47041143399762836 2.3632946870634952 0.20195169819535561 -0.90988698888207054 -0.64153630221486979 -0.034878644894172896 1.6638982793015453 0.23446960019576349 1.2550543056423236 0.6786014002273586 1.4421860781435625 0.6786125344391849 -0.64809321415118848 -0.61720007137430233 -0.78906654730852355 0.59913919911222979 -0.25815114533067601 0.25644836124383702 -1.7137397047161704
decision_type=2 2 2 2 2 2 2 2 2 2 2 2 2 2 2 2 2 2 2 2 2 2 2 2 2 2 2 2 2 2
left_child=1 2 -1 4 11 -6 -7 8 -8 19 -11 12 14 -14 16 -16 -3 21 -18 25 28 -13 27 -19 -25 26 -9 -23 29 -17
right_child=-2 3 -4 -5 5 6 7 9 -10 10 -12 17 13 -15 15 20 18 23 -20 -21 -22 22 -24 24 -26 -27 -28 -29 -30 -31
leaf_value=0.00060813060748789985 -0.00076145046058196677 0.0011182454756999505 9.310557633056633e-05 -0.00056987870761076925 -0.00056220692142321745 0.00061675963291366184 -5.1242905115641502e-05 -9.8379777402167855e-05 -0.0013324236557057771 -1.7402667518011905e-05 0.00057607420961019301 -7.1145827767652407e-06 -0.00033837206788699733 0.004134672170737758 0.000471797755220905 -0.00054658002534415577 -4.8970452116918753e-05 0.00019155910211598635 0.00071601742288164268 -0.00054080988668526217 0.00013784122585789121 0.00058399697808244342 -0.00039224154068506322 -0.00061813773196366312 0.00010492659316779199 -0.00016563618336909173 0.00077743283512245404 0.00014177920415837936 -0.00019412574625490305 1.0584338589325897e-06
leaf_weight=35 38 20 977 24 41 28 97 53 26 1448 29 5502 22 20 60 25 24 21 21 36 134 39 20 53 22 366 20 116 293 468
leaf_count=35 38 20 977 24 41 28 97 53 26 1448 29 5502 22 20 60 25 24 21 21 36 134 39 20 53 22 366 20 116 293 468
internal_value=6.65702e-13 2.88198e-06 0.000110918 -9.22836e-06 -7.73395e-06 -5.76703e-05 -4.78339e-05 -5.68019e-05 -0.000322062 -4.00873e-05 -5.75011e-06 7.87298e-06 8.11461e-05 0.00179165 1.23986e-05 -2.37443e-05 0.000557323 -5.92364e-06 0.000308024 -0.000146858 -5.60623e-05 -1.36815e-06 0.0001793 -0.000275314 -0.000406039 -0.000114552 0.000141569 0.000253047 -8.91196e-05 -2.67123e-05
internal_weight=10078 10040 1012 9028 9004 2144 2103 2075 123 1952 1477 6860 1087 42 1045 980 65 5773 45 475 920 5677 175 96 75 439 73 155 786 493
internal_count=10078 10040 1012 9028 9004 2144 2103 2075 123 1952 1477 6860 1087 42 1045 980 65 5773 45 475 920 5677 175 96 75 439 73 155 786 493
is_linear=0
shrinkage=0.03


Tree=28
num_leaves=31
num_cat=0
split_feature=3 3 5 3 7 7 4 3 2 0 3 4 3 7 2 5 5 2 6 1 4 6 7 0 4 2 7 0 1 2
split_gain=0.0244035 0.0144638 0.0159631 0.00939455 0.0129533 0.0131996 0.0118038 0.0300224 0.0093024 0.00794196 0.0104234 0.00704071 0.00892704 0.00661232 0.00839251 0.00596758 0.204585 0.0119871 0.00960268 0.0122647 0.00719212 0.00979527 0.00740385 0.00583846 0.00572308 0.00548935 0.00545267 0.00541835 0.00531178 0.00832755
threshold=2.512859689433999 -1.4858537234370035 -0.98994504733150523 0.36119558180380612 -1.601327027763549 -1.3613568920182597 -0.91969957571935701 1.7016580215816062 -2.6189875610684736 -0.61240848188237706 1.8507010582666805 -0.27483482693164374 -1.8514044349140655 0.56506211891578684 -1.2586295387779807 0.30525830006486548 0.29181914387176749 -1.6750480505180012 -1.8445021636045424 -0.63882386313491601 1.6638982793015453 1.4421860781435625 -1.1278245732185961 -0.59362040729561771 -0.25815114533067601 -0.40637143826623884 -0.35104144558227551 -0.60837345915233476 -0.62746932393492527 -1.3865463308229533
decision_type=2 2 2 2 2 2 2 2 2 2 2 2 2 2 2 2 2 2 2 2 2 2 2 2 2 2 2 2 2 2
left_child=1 2 -1 15 25 -6 7 -7 -4 -8 26 12 -10 14 -13 16 18 -17 19 -3 21 22 28 -22 -23 -5 -11 -28 29 -20
right_child=-2 3 8 4 5 6 9 -9 11 10 -12 13 -14 -15 -16 17 -18 -19 20 -21 23 24 -24 -25 -26 -27 27 -29 -30 -31
leaf_value=0.00075616821580167318 -0.00077968518676546704 0.00058459963598711919 0.00073870916012674568 -0.00094287529285065836 0.00059825684234965587 -0.00015418406990258692 -0.00014911553452611441 -0.0013770912028849124 -7.783401128835976e-05 -0.00011568486686590924 0.00063359556982860621 -0.00043099960184918019 0.00077251290692947807 -0.0003759892041163862 0.00019137222129547108 -0.0007176226745176118 0.0022205975018809304 -2.8047557241921586e-05 0.000534135969911321 -0.00025351421454450411 -0.00033810618808153474 0.00057701457883619397 -1.043257129870909e-06 0.00019747382505042681 0.00014734538935074179 -0.00024841228233916419 0.00044243751543237723 1.1987557900370918e-05 0.0003149041809956543 -0.00012582102942993698
leaf_weight=42 36 55 20 20 28 187 414 20 20 336 23 24 25 38 104 23 38 1672 22 22 90 36 5349 23 124 21 27 1043 117 79
leaf_count=42 36 55 20 20 28 187 414 20 20 336 23 24 25 38 104 23 38 1672 22 22 90 36 5349 23 124 21 27 1043 117 79
internal_value=-9.02661e-13 2.79513e-06 0.00021817 -3.22365e-06 -5.91221e-05 -4.87033e-05 -5.75398e-05 -0.000272339 0.000120353 -3.34142e-05 1.05961e-07 6.17406e-05 0.000394581 -2.84872e-05 7.46775e-05 1.22598e-05 2.63961e-05 -3.74046e-05 1.23045e-05 0.000345139 7.91614e-06 1.25926e-05 5.94118e-06 -0.000229094 0.000244021 -0.000587175 -1.0257e-05 2.28494e-05 0.000177316 1.7932e-05
internal_weight=10078 10042 273 9769 2119 2078 2050 207 231 1843 1429 211 45 166 128 7650 5955 1695 5917 77 5840 5727 5567 113 160 41 1406 1070 218 101
internal_count=10078 10042 273 9769 2119 2078 2050 207 231 1843 1429 211 45 166 128 7650 5955 1695 5917 77 5840 5727 5567 113 160 41 1406 1070 218 101
is_linear=0
shrinkage=0.03


Tree=29
num_leaves=31
num_cat=0
split_feature=0 3 1 5 5 4 0 6 4 6 8 8 8 3 2 0 3 3 1 6 0 7 1 7 3 4 2 2 4 6
split_gain=0.0230778 0.0133028 0.00928066 0.00774456 0.007253 0.00971592 0.00944201 0.00917626 0.00889563 0.00654888 0.00656348 0.0351038 0.303714 0.0117668 0.0129849 0.0091655 0.00837556 0.0113929 0.00958567 0.00758016 0.0127264 0.0111135 0.00964402 0.00658161 0.00772399 0.00821777 0.00749772 0.00721837 0.00628321 0.00597957
threshold=3.387181704811725 -0.69644629365156119 -0.6379992317963693 3.0035765456941061 -2.4189890788819697 1.3049345252317759 -0.59160289593059656 -1.6014273253675173 1.2550543056423236 2.7224842397622369 -0.099581394829487621 -0.16145474309431257 -0.15398034520719275 2.0281924438166299 1.0000000180025095e-35 -0.64809321415118848 1.7016580215816062 1.2876091594032757 -0.62252153590364434 -0.85028452396070486 -0.61921758273932348 -1.0272516311562476 -0.60637779162209327 0.53369929541447469 0.50512600464615665 -0.71701195141716934 -0.96934348071067411 0.1648201332793458 1.5421315123950921 -0.99002946919309787
decision_type=2 2 2 2 2 2 2 2 2 2 2 2 2 2 2 2 2 2 2 2 2 2 2 2 2 2 2 2 2 2
left_child=1 2 -1 4 -3 8 7 -7 9 10 11 15 -13 -12 -15 -6 17 18 23 22 -21 -22 -20 24 25 -17 -27 -28 -4 -24
right_child=-2 3 28 -5 5 6 -8 -9 -10 -11 13 12 -14 14 -16 16 -18 -19 19 20 21 -23 29 -25 -26 26 27 -29 -30 -31
leaf_value=0.00032119805162188176 -0.00073791423463645555 0.00038135842110847967 8.3552716569585788e-05 -0.00054695910865120822 0.00052574208584325063 0.00028276490361101671 8.1114940934386067e-05 -0.00036689002383046514 0.00054015162607861896 0.00051170523066750972 -1.9923337675840739e-05 0.0032575322605257026 9.3830062506180022e-06 -0.0009472397784702479 8.9171602247426144e-07 0.00060069329875160854 0.00044311598278000018 -0.00054021153180164642 0.00028196611223393122 -0.00057577013611686807 0.00040243588314704793 -1.963410232033438e-05 -0.00025114368387148717 0.00042065564373758833 -0.00032478637139623362 -0.00032686936318093691 0.00034190493253654015 -0.00020127682643379235 -0.00034487822274968492 -0.00077910196649519587
leaf_weight=153 38 43 827 24 29 22 86 177 27 22 5952 29 243 26 26 31 36 37 24 36 58 1757 75 65 36 34 76 31 32 26
leaf_count=153 38 43 827 24 29 22 86 177 27 22 5952 29 243 26 26 31 36 37 24 36 58 1757 75 65 36 34 76 31 32 26
internal_value=-1.21319e-12 2.7929e-06 0.000105934 -8.76878e-06 -7.33425e-06 -9.19942e-06 -0.000181554 -0.000295069 -3.53771e-06 -5.23497e-06 -6.55323e-06 3.30362e-05 0.000355693 -2.38489e-05 -0.000473174 -4.2937e-06 -1.09134e-05 -1.80635e-05 -9.47326e-06 -3.24943e-05 -1.7225e-05 -6.14647e-06 -0.000258602 0.000157155 7.48116e-05 0.000158448 6.12173e-05 0.000184535 6.75925e-05 -0.000387054
internal_weight=10078 10040 1012 9028 9004 8961 285 199 8676 8649 8627 2623 272 6004 52 2351 2322 2286 2249 1976 1851 1815 125 273 208 172 141 107 859 101
internal_count=10078 10040 1012 9028 9004 8961 285 199 8676 8649 8627 2623 272 6004 52 2351 2322 2286 2249 1976 1851 1815 125 273 208 172 141 107 859 101
is_linear=0
shrinkage=0.03


Tree=30
num_leaves=31
num_cat=0
split_feature=3 3 5 3 7 7 4 3 7 4 0 3 2 2 2 0 0 6 4 6 1 0 6 5 2 7 5 4 5 1
split_gain=0.0227803 0.0129374 0.0151909 0.00859378 0.0121893 0.0123725 0.0109783 0.0279684 0.00840115 0.0079467 0.00726433 0.00979426 0.00679327 0.00833546 0.0066875 0.00566053 0.152914 0.00609586 0.00573766 0.0093128 0.00813708 0.0130615 0.0123417 0.0166718 0.00523311 0.00516653 0.00532053 0.00814001 0.00698479 0.00599692
threshold=2.512859689433999 -1.4858537234370035 -1.7136543712133945 0.36119558180380612 -1.601327027763549 -1.3613568920182597 -0.91969957571935701 1.7016580215816062 0.49337698229275639 -0.78766372806263518 -0.61240848188237706 1.8507010582666805 -0.13493639514473574 -2.0707422883338906 -1.3865463308229533 2.3632946870634952 2.4334032069979794 -0.50873784920340492 -0.67757427486451449 -1.4050976483299171 -0.56501935833497596 -0.5401563561225573 0.63579058477827055 0.59869554034894945 -0.40637143826623884 -0.35104144558227551 0.88830775158327813 0.56459668978761868 0.24434790552499944 -0.57770599431261938
decision_type=2 2 2 2 2 2 2 2 2 2 2 2 2 2 2 2 2 2 2 2 2 2 2 2 2 2 2 2 2 2
left_child=1 2 -1 15 24 -6 7 -7 9 -4 -8 25 13 -11 -15 18 -17 -18 19 -3 -21 -22 23 -23 -5 26 27 28 -12 -30
right_child=-2 3 8 4 5 6 10 -9 -10 12 11 -13 -14 14 -16 16 17 -19 -20 20 21 22 -24 -25 -26 -27 -28 -29 29 -31
leaf_value=0.00091123013757169239 -0.00075330794556066388 0.00060422535195539247 0.00075190860089724486 -0.00091599680995568637 0.00058001286749328877 -0.00014801303468600885 -0.00014229184759891316 -0.0013283462072722612 -0.00019174360690687371 0.00062526293498064783 8.4481590382132047e-06 0.00061449446811583704 0.00058481895298297907 -0.00050890718819573521 7.9985350606148132e-05 0.0020796639220365745 -0.00044301300205916048 -1.1087271765168863e-05 -3.2322848139802062e-06 0.00013059538847438437 -0.00077104319962571658 1.855756958010294e-05 0.00059231245303705612 -0.00087811192624609577 -0.00023793601065075822 2.2602455215236889e-05 0.00028368834871798752 -0.00048272844017547965 -0.00078681137434614349 -0.00014502200453869973
leaf_weight=25 36 30 23 20 28 187 414 20 55 21 196 23 28 21 100 33 32 363 6521 477 23 123 26 22 21 1070 28 54 20 38
leaf_count=25 36 30 23 20 28 187 414 20 55 21 196 23 28 21 100 33 32 363 6521 477 23 123 26 22 21 1070 28 54 20 38
internal_value=-7.82141e-13 2.70057e-06 0.000206394 -2.99177e-06 -5.64548e-05 -4.6348e-05 -5.49032e-05 -0.000262055 0.000135342 0.000228554 -3.16365e-05 4.21773e-07 0.000157747 7.35353e-05 -2.22191e-05 1.18171e-05 0.000117822 -4.60787e-05 5.53493e-06 8.70913e-05 6.39706e-05 -9.98441e-05 -9.56583e-06 -0.000117489 -0.000568697 -9.62351e-06 -0.000112248 -0.000148242 -7.71308e-05 -0.000366329
internal_weight=10078 10042 273 9769 2119 2078 2050 207 248 193 1843 1429 170 142 121 7650 428 395 7222 701 671 194 171 145 41 1406 336 308 254 58
internal_count=10078 10042 273 9769 2119 2078 2050 207 248 193 1843 1429 170 142 121 7650 428 395 7222 701 671 194 171 145 41 1406 336 308 254 58
is_linear=0
shrinkage=0.03


Tree=31
num_leaves=31
num_cat=0
split_feature=0 0 0 5 3 4 4 1 6 2 8 4 7 5 5 0 4 1 4 8 8 8 3 2 3 1 7 7 7 4
split_gain=0.0216492 0.0121693 0.0271353 0.0170224 0.0112478 0.00809789 0.00827984 0.0103957 0.0103943 0.00811486 0.006826 0.00647428 0.00997571 0.00743458 0.00614279 0.00814747 0.00776293 0.00690325 0.00825262 0.00603961 0.0330233 0.293376 0.0141213 0.0210298 0.00848848 0.0100359 0.0110409 0.00829304 0.0106916 0.0119278
threshold=3.387181704811725 -0.6536413704049967 -0.65565888177001785 3.0035765456941061 -0.58636492207407287 2.3360988560421032 -0.19987254748267452 -0.22961641967603055 -0.58009717792200077 0.42421204802773316 -1.0271088080085331 1.3049345252317759 0.21316517733632098 -0.037719600588032705 -1.7136543712133945 -0.64557132494491209 1.5421315123950921 -0.64113917420083599 0.81559127135527754 -0.099581394829487621 -0.16145474309431257 -0.15398034520719275 2.0281924438166299 1.0000000180025095e-35 1.7016580215816062 -0.63844326405558671 -1.601327027763549 -0.90948533711609347 -0.55403276944130186 -0.33627292851027735
decision_type=2 2 2 2 2 2 2 2 2 2 2 2 2 2 2 2 2 2 2 2 2 2 2 2 2 2 2 2 2 2
left_child=1 2 -1 4 5 6 9 14 -9 10 -3 19 -13 -14 -8 -16 17 -17 -19 20 24 -22 -21 -24 25 -6 -27 -28 29 -29
right_child=-2 3 -4 -5 11 -7 7 8 -10 -11 -12 12 13 -15 15 16 -18 18 -20 22 21 -23 23 -25 -26 26 27 28 -30 -31
leaf_value=5.8829341651289727e-05 -0.00071471092874018818 0.00066802701021184804 0.0013271898071579925 -0.00081551342789126747 0.00026948959436493973 0.00066730722319334739 0.0005389936649589799 -0.00083767665300651321 -0.0001041296427368675 0.00070956272536512599 0.00012024022569639166 -0.00024927113084802758 0.00058383354430552564 -9.7666791933828353e-05 -0.00048118684664368624 0.00053644594736397262 -0.00033836578964110227 2.6272399974050129e-05 0.00029693626040439155 -1.8672445918194236e-05 0.0032532743432862584 9.6648143426888452e-06 -0.0011922298399124132 3.2049419657726373e-05 0.00044560200732981635 -0.00065372043130919333 0.00023044159305006352 -0.00059643701123422938 -1.0608188430721294e-05 -8.8646452388328571e-05
leaf_weight=63 38 22 20 23 108 21 24 21 101 26 295 215 25 34 25 30 40 600 122 5758 28 242 23 28 37 25 113 60 1775 136
leaf_count=63 38 22 20 23 108 21 24 21 101 26 295 215 25 34 25 30 40 600 122 5758 28 242 23 28 37 25 113 60 1775 136
internal_value=9.66138e-13 2.70508e-06 0.000364458 -3.10437e-07 1.57699e-06 8.28755e-05 7.34781e-05 2.8397e-05 -0.000230396 0.000200047 0.000158257 -1.09574e-05 -0.000154446 0.000191105 6.59389e-05 5.20425e-05 6.88743e-05 9.0536e-05 7.20078e-05 -6.23928e-06 3.25071e-05 0.000346039 -2.30745e-05 -0.000520077 -5.04997e-06 -1.2571e-05 -2.70151e-05 -1.9497e-05 -3.38263e-05 -0.000244093
internal_weight=10078 10040 83 9957 9934 1327 1306 963 122 343 317 8607 274 59 841 817 792 752 722 8333 2524 270 5809 51 2254 2217 2109 2084 1971 196
internal_count=10078 10040 83 9957 9934 1327 1306 963 122 343 317 8607 274 59 841 817 792 752 722 8333 2524 270 5809 51 2254 2217 2109 2084 1971 196
is_linear=0
shrinkage=0.03


Tree=32
num_leaves=31
num_cat=0
split_feature=3 3 5 2 3 7 7 4 3 0 3 4 3 7 2 3 3 6 4 6 6 2 4 5 1 3 5 8 3 4
split_gain=0.021473 0.0118059 0.0139833 0.00816819 0.00794332 0.0112486 0.0115636 0.0102117 0.0258862 0.00674119 0.00923243 0.00625867 0.00845118 0.00599506 0.00738437 0.00566071 0.172511 0.207684 0.0094077 0.00777788 0.00717059 0.00667524 0.00967657 0.010436 0.00551418 0.00767753 0.0090844 0.00937674 0.00692384 0.00580548
threshold=2.512859689433999 -1.4858537234370035 -0.98994504733150523 -2.6189875610684736 0.36119558180380612 -1.601327027763549 -1.3613568920182597 -0.91969957571935701 1.7016580215816062 -0.61240848188237706 1.8507010582666805 -0.27483482693164374 -1.8514044349140655 0.56506211891578684 -0.96934348071067411 0.018981246886015234 0.026740921452234761 1.0000000180025095e-35 -0.64080602820095289 -1.4050976483299171 1.1342372832349803 0.68039782701913565 -1.6016987558821707 0.78384334026654634 -0.61538530316621998 -0.95939314365722195 -0.12526325123086487 -0.47015819355837135 -0.49748671547947282 -0.90988698888207054
decision_type=2 2 2 2 2 2 2 2 2 2 2 2 2 2 2 2 2 2 2 2 2 2 2 2 2 2 2 2 2 2
